{"classifier":{"brain":{"layers":[{"0":{},"1":{},"2":{},"3":{},"4":{},"5":{},"6":{},"7":{},"8":{},"9":{},"10":{},"11":{},"12":{},"13":{},"14":{},"15":{},"16":{},"17":{},"18":{},"19":{},"20":{},"21":{},"22":{},"23":{},"24":{},"25":{},"26":{},"27":{},"28":{},"29":{},"30":{},"31":{},"32":{},"33":{},"34":{},"35":{},"36":{},"37":{},"38":{},"39":{},"40":{},"41":{},"42":{},"43":{},"44":{},"45":{},"46":{},"47":{},"48":{},"49":{},"50":{},"51":{},"52":{},"53":{},"54":{},"55":{},"56":{},"57":{},"58":{},"59":{},"60":{},"61":{},"62":{},"63":{},"64":{},"65":{},"66":{},"67":{},"68":{},"69":{},"70":{},"71":{},"72":{},"73":{},"74":{},"75":{},"76":{},"77":{},"78":{},"79":{},"80":{},"81":{},"82":{},"83":{},"84":{},"85":{},"86":{},"87":{},"88":{},"89":{},"90":{},"91":{},"92":{},"93":{},"94":{},"95":{},"96":{},"97":{},"98":{},"99":{},"100":{},"101":{},"102":{},"103":{},"104":{},"105":{},"106":{},"107":{},"108":{},"109":{},"110":{},"111":{},"112":{},"113":{},"114":{},"115":{},"116":{},"117":{},"118":{},"119":{},"120":{},"121":{},"122":{},"123":{},"124":{},"125":{},"126":{},"127":{},"128":{},"129":{},"130":{},"131":{},"132":{},"133":{},"134":{},"135":{},"136":{},"137":{},"138":{},"139":{},"140":{},"141":{},"142":{},"143":{},"144":{},"145":{},"146":{},"147":{},"148":{},"149":{},"150":{},"151":{},"152":{},"153":{},"154":{},"155":{},"156":{},"157":{},"158":{},"159":{},"160":{},"161":{},"162":{},"163":{},"164":{},"165":{},"166":{},"167":{},"168":{},"169":{},"170":{},"171":{},"172":{},"173":{},"174":{},"175":{},"176":{},"177":{},"178":{},"179":{},"180":{},"181":{},"182":{},"183":{},"184":{},"185":{},"186":{},"187":{},"188":{},"189":{},"190":{},"191":{},"192":{},"193":{},"194":{},"195":{},"196":{},"197":{},"198":{},"199":{},"200":{},"201":{},"202":{},"203":{},"204":{},"205":{},"206":{},"207":{},"208":{},"209":{},"210":{},"211":{},"212":{},"213":{},"214":{},"215":{},"216":{},"217":{},"218":{},"219":{},"220":{},"221":{},"222":{},"223":{},"224":{},"225":{},"226":{},"227":{},"228":{},"229":{},"230":{},"231":{},"232":{},"233":{},"234":{},"235":{},"236":{},"237":{},"238":{},"239":{},"240":{},"241":{},"242":{},"243":{},"244":{},"245":{},"246":{},"247":{},"248":{},"249":{},"250":{},"251":{},"252":{},"253":{},"254":{},"255":{},"256":{},"257":{},"258":{},"259":{},"260":{},"261":{},"262":{},"263":{},"264":{},"265":{},"266":{},"267":{},"268":{},"269":{},"270":{},"271":{},"272":{},"273":{},"274":{},"275":{},"276":{},"277":{},"278":{},"279":{},"280":{},"281":{},"282":{},"283":{},"284":{},"285":{},"286":{},"287":{},"288":{},"289":{},"290":{},"291":{},"292":{},"293":{},"294":{},"295":{},"296":{},"297":{},"298":{},"299":{},"300":{},"301":{},"302":{},"303":{},"304":{},"305":{},"306":{},"307":{},"308":{},"309":{},"310":{},"311":{},"312":{},"313":{},"314":{},"315":{},"316":{},"317":{},"318":{},"319":{},"320":{},"321":{},"322":{},"323":{},"324":{},"325":{},"326":{},"327":{},"328":{},"329":{},"330":{},"331":{},"332":{},"333":{},"334":{},"335":{},"336":{},"337":{},"338":{},"339":{},"340":{},"341":{},"342":{},"343":{},"344":{},"345":{},"346":{},"347":{},"348":{},"349":{},"350":{},"351":{},"352":{},"353":{},"354":{},"355":{},"356":{},"357":{},"358":{},"359":{},"360":{},"361":{},"362":{},"363":{},"364":{},"365":{},"366":{},"367":{},"368":{},"369":{},"370":{},"371":{},"372":{},"373":{},"374":{},"375":{},"376":{},"377":{},"378":{},"379":{},"380":{},"381":{},"382":{},"383":{},"384":{},"385":{},"386":{},"387":{},"388":{},"389":{},"390":{},"391":{},"392":{},"393":{},"394":{},"395":{},"396":{},"397":{},"398":{},"399":{},"400":{},"401":{},"402":{},"403":{},"404":{},"405":{},"406":{},"407":{},"408":{},"409":{},"410":{},"411":{},"412":{},"413":{},"414":{},"415":{},"416":{},"417":{},"418":{},"419":{},"420":{},"421":{}},{"0":{"bias":-0.32311383275835387,"weights":{"0":0.058785652475577654,"1":0.04904386358241357,"2":0.29186857475446687,"3":0.166796369150609,"4":-0.14278707612022015,"5":0.28098269917262547,"6":-0.018579501474593568,"7":-0.08779527491166461,"8":0.12906900477168634,"9":-0.03364313016597846,"10":-0.0451346092493513,"11":-0.15733626511656446,"12":-0.10341896596595947,"13":0.1368944764105581,"14":0.07240397012960194,"15":-0.15873848843593877,"16":-0.4960164575931967,"17":-0.33291161002272757,"18":-0.45036366333105377,"19":-0.08032882866361292,"20":-0.24327518973490597,"21":-0.05588407406588144,"22":-0.02694621511234355,"23":0.2811965493580391,"24":0.09354024384154777,"25":-0.1975845631515461,"26":-0.025729606920604196,"27":0.17225045000173544,"28":-0.04609342201165095,"29":0.13819083299435891,"30":-0.19178713378791,"31":-0.14604224477170516,"32":-0.07817030904727484,"33":-0.12560508133402126,"34":-0.09614105624675165,"35":0.11755966144780494,"36":-0.021018482443184317,"37":-0.08565262790201178,"38":0.17368641256231793,"39":0.11073140760837334,"40":0.16954084132285097,"41":0.17012940135162177,"42":-0.016971129732621597,"43":0.07803718280250792,"44":-0.1016656237188684,"45":-0.21181119146618413,"46":0.1016583194309059,"47":0.09015892292635318,"48":-0.060081836062213075,"49":-0.12960989980375154,"50":0.09643228926338517,"51":-0.20667366206347493,"52":-0.281177148484753,"53":-0.2346975429046109,"54":0.018110178410303185,"55":0.12322867292313482,"56":-0.24524339506638013,"57":-0.02032951600630329,"58":0.09139791508022013,"59":0.08642211522634809,"60":0.19307363379366876,"61":0.18478673694788775,"62":0.03286992841965479,"63":-0.05265769524409558,"64":-0.053183410344262515,"65":-0.06662197582620343,"66":-0.22534570440106783,"67":-0.18010216879135432,"68":-0.16752997999591762,"69":-0.10833221060816299,"70":0.04605291118313038,"71":-0.184220071565563,"72":-0.16963561079351,"73":0.13989064210275812,"74":0.13240152625070575,"75":0.18323225634240412,"76":0.251498223501303,"77":-0.09081360744116866,"78":0.10633053908189281,"79":0.08038923646277203,"80":-0.08870612161658746,"81":-0.06126416983783926,"82":0.13063960190631874,"83":-0.06353779382895469,"84":0.14438565005892995,"85":-0.18266110949846878,"86":0.08898560574156188,"87":0.21955579664924704,"88":0.06033236274097277,"89":-0.07814795373449557,"90":-0.18738203368813197,"91":-0.2557419811978815,"92":0.06093822339382864,"93":0.11198887961417116,"94":0.031399062421516154,"95":0.01431105950242346,"96":0.08791366958248464,"97":-0.007685674970572772,"98":-0.07222971277262655,"99":-0.1877785911604774,"100":-0.03488828692116824,"101":0.11931280180682673,"102":-0.1584304435909817,"103":0.2061663713630318,"104":-0.17455447590102138,"105":-0.26544473318566947,"106":0.006373996443529714,"107":0.25331406762003633,"108":0.16823835914876956,"109":0.12204400696784003,"110":0.10790814027797344,"111":0.3021444760970836,"112":0.18321569894049233,"113":0.13757420881697158,"114":0.0598246476837205,"115":0.2478313970083137,"116":0.2302369647624399,"117":0.17421482999364968,"118":-0.07707542503991635,"119":-0.10423344845328074,"120":-0.06851620665950056,"121":0.039713058406339964,"122":0.06156894864394965,"123":-0.1660669385985185,"124":0.09425107797039597,"125":0.08832218329380286,"126":-0.05876901040560981,"127":0.24135354090682032,"128":0.17518064685399887,"129":-0.10567339006671977,"130":0.18402502048562022,"131":0.09598637542681435,"132":0.003911509204936817,"133":0.053033255026824884,"134":0.13152905205238888,"135":-0.1410197677609584,"136":-0.2613238151320171,"137":0.027722935539553004,"138":0.03458590910718322,"139":0.23779652628025216,"140":-0.17913216582247382,"141":0.3808507256197538,"142":-0.15314921887126448,"143":0.029128910552699724,"144":-0.1440858631728583,"145":-0.24352087765386712,"146":-0.2952100375432175,"147":0.000796742212546669,"148":-0.3463902573773052,"149":-0.03626329400864753,"150":-0.14115634435665853,"151":-0.015440751657051884,"152":-0.10066528530783421,"153":0.10469975438047005,"154":0.043815765657934186,"155":-0.11225508116325857,"156":-0.19455552844608712,"157":0.21212827718015162,"158":0.021081068629200384,"159":0.10759417396587852,"160":0.0942981560247323,"161":-0.13256685036099877,"162":0.1642590047056187,"163":-0.01352803739659243,"164":0.07721930720091232,"165":-0.16982924413960154,"166":-0.03997434909502236,"167":0.1426355129925376,"168":0.03466883161943625,"169":0.06315719730165736,"170":0.15125258044000708,"171":-0.1499200123219613,"172":0.18033138216073863,"173":0.15182916076247246,"174":0.14034747611418033,"175":0.06388815586457125,"176":-0.18309896207624876,"177":0.18688608549696437,"178":0.0538251189772206,"179":0.017100777513236878,"180":0.18507699520974846,"181":-0.04244341580693478,"182":0.03633106741346798,"183":0.10888761516999436,"184":0.15678293012677408,"185":0.031345310887341084,"186":0.12971065073546492,"187":-0.14924269490218084,"188":0.13708871472934853,"189":0.04658052234964447,"190":-0.1385853806287806,"191":0.17239935463932707,"192":0.07899092138931779,"193":0.09303684579898001,"194":-0.032675949877577055,"195":-0.12924512089958098,"196":0.11069581107116498,"197":-0.0027386465944179835,"198":0.18953053335611028,"199":-0.24480379484511292,"200":0.08159291617683397,"201":0.11944977164635802,"202":-0.08638826560694016,"203":0.048353494193187914,"204":0.19532868572015788,"205":-0.12674736592302885,"206":-0.05710789667366914,"207":0.07434365684432359,"208":-0.048538315414237976,"209":-0.09118928497298244,"210":-0.07857603025772639,"211":0.17876968611947835,"212":0.1767788804407042,"213":-0.08355121097368873,"214":0.07227933570908233,"215":0.14149024880671726,"216":-0.0807188926412888,"217":-0.14634097726801903,"218":-0.14877815589590737,"219":0.1636753130510014,"220":-0.16117208944858083,"221":0.14520944467600155,"222":-0.1099869349133295,"223":0.3346999534848166,"224":-0.058629511999961116,"225":0.2782854858283616,"226":0.1700676170885856,"227":0.18943633975809754,"228":0.07945060644871396,"229":0.1571224057743602,"230":0.10911379491743431,"231":0.19740869549500964,"232":-0.019465681417314116,"233":0.077459339150761,"234":-0.0786743741072331,"235":0.11075797267836636,"236":0.21277600412773673,"237":0.0348654952623068,"238":-0.05516476001779834,"239":0.2064636537112007,"240":-0.06921118213871436,"241":-0.16397379696367495,"242":0.008693509641147519,"243":0.08975728379628506,"244":-0.06871834657302685,"245":0.2256355893739796,"246":0.07041028538461173,"247":0.16432644659391865,"248":-0.2813147128315617,"249":-0.012173482425240611,"250":0.25183636098553175,"251":0.19164134023992394,"252":0.3487146546570669,"253":-0.2824979496463272,"254":-0.10681460373240077,"255":0.08266269255392754,"256":-0.24224049454438973,"257":-0.15991587426938672,"258":0.003996687065561441,"259":0.11974692902552124,"260":0.04111673933009546,"261":0.10806892056378424,"262":-0.053131004042263424,"263":0.18931661353060542,"264":0.2681353835135982,"265":-0.29414491331288994,"266":-0.2886995404471798,"267":-0.4375644284820372,"268":-0.12652812153540227,"269":-0.04288592533397116,"270":0.10982960175056598,"271":-0.08391126433923148,"272":0.025555340951849508,"273":0.14141112549731424,"274":-0.15458582791867886,"275":-0.17803329153701306,"276":-0.03130250269273577,"277":-0.3090354015496378,"278":0.19937994705945175,"279":-0.04795921661586751,"280":0.09972057342782085,"281":-0.1591887438372353,"282":0.05540187442876443,"283":-0.14177190284382676,"284":0.13206421040192834,"285":-0.001252705288430742,"286":0.207059221302241,"287":0.2624712917774962,"288":0.03578149584739187,"289":-0.027938139916045962,"290":0.13131631670109836,"291":-0.16104104918365486,"292":-0.04305368365749671,"293":-0.1425086471089348,"294":-0.1344202138652296,"295":-0.03524619999061039,"296":-0.15235389855053952,"297":-0.2020206603206796,"298":-0.0398098101414848,"299":-0.14644912462687038,"300":-0.1313069395230796,"301":-0.09438797050691697,"302":-0.28418238848607524,"303":0.04586326809809902,"304":-0.04493936033049263,"305":-0.03060437729844101,"306":0.13430258165470374,"307":0.149683303690137,"308":0.07659767954944251,"309":0.006294307108648924,"310":0.11604836049336402,"311":-0.014894506415174435,"312":-0.16014075022631866,"313":-0.13647355433001518,"314":-0.11834668132886846,"315":-0.08176437012992398,"316":-0.14815713317424695,"317":0.06029207397416477,"318":0.009946299681651175,"319":0.1666124444577263,"320":0.046397270571181065,"321":0.11504756208949676,"322":0.2053276508035139,"323":0.20210119107773125,"324":-0.0761242049028665,"325":0.010139747570055454,"326":0.0650697267001508,"327":-0.16492855962334838,"328":0.1997178451772297,"329":0.041442952583034126,"330":-0.06721582161768089,"331":-0.09998784972376283,"332":0.11254027680343348,"333":-0.11842538796855055,"334":-0.15066944889298634,"335":-0.08965993962004092,"336":-0.029282237245664672,"337":-0.04220857511748331,"338":0.20291615578788502,"339":-0.057846495775516565,"340":-0.17091944729273667,"341":-0.004628095140441931,"342":0.05291440601079803,"343":-0.029942720100765985,"344":-0.018402814611062402,"345":-0.3615857060756386,"346":-0.10796422386958536,"347":0.10389847985455494,"348":-0.16736124117565854,"349":0.0866845503189818,"350":0.050298117551056516,"351":-0.19845915301627073,"352":0.14878898561640913,"353":-0.09893593592811967,"354":0.06413449159714635,"355":-0.02065029284284471,"356":0.1361451141368044,"357":0.15698770844846674,"358":0.010592080486657026,"359":-0.19602976118662058,"360":0.15471167856889767,"361":0.17168151241916593,"362":-0.006177292158509967,"363":0.0967828482606196,"364":0.010408206418511963,"365":-0.17510000950547722,"366":0.18206192687342487,"367":-0.11873262226904033,"368":-0.008281929702009003,"369":-0.13448771629310877,"370":-0.10060277408049499,"371":-0.12730997808264066,"372":-0.0716407996194412,"373":-0.10759096990605838,"374":-0.011352104873605865,"375":0.051300173218382886,"376":-0.19596900818138463,"377":0.08642587245899451,"378":0.06840962587372393,"379":-0.08709835958734177,"380":0.07297277538040511,"381":0.15882929047256256,"382":0.03066986292354445,"383":0.17653211524257065,"384":-0.0957059207492763,"385":0.2522967871760404,"386":0.18034925174200714,"387":-0.1896233610291964,"388":0.13228355926152635,"389":-0.1963718476944511,"390":0.13853127079631117,"391":0.1953822093869366,"392":0.1292373629881517,"393":0.07019333377326786,"394":0.18689881072609127,"395":0.18923080121695132,"396":0.15119509472729667,"397":-0.07079306522346729,"398":0.033229567325801644,"399":-0.13918128142738737,"400":-0.06064322278262483,"401":0.057096413587600134,"402":-0.1285617984874617,"403":-0.03799751808084287,"404":-0.0028642098295526305,"405":-0.5481115818603857,"406":-0.29438596562462027,"407":-0.3675816690125587,"408":-0.2174881248725989,"409":-0.29288841282064254,"410":-0.2388736667472601,"411":0.62908552309134,"412":0.5171000035678773,"413":0.5005498801130842,"414":0.34672705006066495,"415":-0.05338648704414785,"416":-0.08386582156668287,"417":0.37309250865952587,"418":-0.011057934005950074,"419":0.0340779110641812,"420":-0.20990032988653642,"421":0.09843573650966124}},"1":{"bias":-0.28731361758489216,"weights":{"0":0.010400163856179154,"1":-0.11941575232099953,"2":0.6170757375594653,"3":0.26786023681619786,"4":-0.2113966039858768,"5":0.13872356661517127,"6":0.18549162491026897,"7":-0.2104719312546945,"8":0.2936114160018042,"9":0.17524644722088728,"10":-0.04859125042304546,"11":-0.04605523854443108,"12":0.35822907307395657,"13":-0.06143131564154052,"14":0.2479466423721179,"15":0.07435460920760574,"16":-0.16992603594161004,"17":0.020062654185400517,"18":-0.18839612299797145,"19":0.0711952235091306,"20":0.17630097653347054,"21":0.1378673411447066,"22":-0.32896026736081946,"23":-0.4104327546987506,"24":-0.3661241978850219,"25":0.06166127589596132,"26":0.07235643634184669,"27":-0.3135782441406963,"28":-0.13673654010556868,"29":-0.08417284193680792,"30":0.02058065004578867,"31":-0.09079569993591026,"32":-0.10497491486407906,"33":-0.09954903908326074,"34":-0.19924366039654715,"35":0.1280842994729593,"36":-0.12993266659271227,"37":-0.10762806854002967,"38":0.06931776119065187,"39":-0.11697979039704917,"40":0.07603063198263549,"41":-0.05028522051522232,"42":-0.03856011020684276,"43":-0.026014260640893495,"44":0.2536166896552127,"45":0.4655494451376363,"46":0.21289258570326333,"47":0.045006526251389074,"48":0.03638891770681442,"49":-0.14722389732260943,"50":0.07081097851161344,"51":-0.3713110552565589,"52":-0.3032584734592686,"53":-0.14898267664002277,"54":0.30752624330836886,"55":-0.22125400925666264,"56":-0.23525216719037423,"57":0.05572343220704186,"58":-0.11195366745410477,"59":0.14869038548901511,"60":-0.03497545667186106,"61":-0.0460933651119613,"62":-0.07020140409065154,"63":-0.10507117033950199,"64":0.04692486944430444,"65":-0.1564220096789707,"66":0.32350541201930333,"67":0.26525409732677824,"68":0.1127939454662794,"69":0.28113730622185396,"70":0.09400288641821833,"71":0.2919282173126223,"72":0.5228205101477337,"73":0.2561279471087047,"74":0.18636992311054112,"75":-0.19901145008145335,"76":0.012131381649832261,"77":0.2836375650064953,"78":0.18030228181748817,"79":0.1116562398378766,"80":0.0017414261994535207,"81":0.14172484525487017,"82":0.16079637546332487,"83":0.19196623853415423,"84":-0.5805261202598304,"85":-0.16875502977647797,"86":-0.3261525906460006,"87":-0.12682477750542734,"88":0.010921519384310492,"89":-0.10295202169034023,"90":-0.2508162134012628,"91":-0.28968311098741295,"92":0.042916176990857015,"93":0.030902868621717212,"94":-0.13393218945426688,"95":-0.18061707275862485,"96":0.1990475542416601,"97":-0.05780472333883419,"98":0.03245278534646316,"99":0.16258745268168448,"100":-0.16884972019379577,"101":0.1639459704843459,"102":0.18656395196825487,"103":0.21850609714832497,"104":-0.2048990462612096,"105":-0.39004747783322546,"106":0.022335015650977216,"107":-0.04772392583919334,"108":-0.09668603496175263,"109":-0.33477275672890705,"110":-0.05382853110282119,"111":0.5541662718179067,"112":-0.15504836234618918,"113":0.1918865208538049,"114":0.2884981351771737,"115":0.34917294730876997,"116":0.5758242175004252,"117":0.31047951074824,"118":0.40323232692030925,"119":0.09730842635913305,"120":0.22883929771360872,"121":0.020136827794732855,"122":-0.042621176638094,"123":-0.02634990716867989,"124":-0.4553187701502448,"125":0.09749622610596777,"126":0.019056265832806205,"127":-0.123215246389107,"128":-0.1801568922871649,"129":-0.09089082596893172,"130":-0.07515327244017068,"131":0.12016900731414765,"132":0.12182908824845667,"133":-0.07776372354629367,"134":0.2383448587722359,"135":0.10863244252938538,"136":0.1060438381652035,"137":0.0451560965260572,"138":0.24901554212816582,"139":0.1857499851415412,"140":0.2145356860687159,"141":0.06026263429453399,"142":0.07859726045763515,"143":0.04572754410299855,"144":-0.07011968522605141,"145":-0.11550513326741485,"146":0.09556526140760793,"147":0.07624685690872239,"148":0.04717730765952933,"149":-0.09160622287072734,"150":-0.20937129019876702,"151":0.0012060661060948879,"152":0.1459751809406931,"153":-0.14206163099855282,"154":-0.04032719029662285,"155":0.021464591626808544,"156":-0.05725945759551799,"157":-0.08754286374893955,"158":-0.02457332151924029,"159":-0.017698718907231372,"160":-0.030612751720170583,"161":-0.18675056791802433,"162":-0.17142141109956704,"163":0.04713514343146894,"164":0.13580710057160325,"165":0.09999617059298477,"166":-0.1063375347317862,"167":-0.07426870857819028,"168":0.052002084506503815,"169":0.010344045900388578,"170":0.12185542756287433,"171":0.021057676974593622,"172":-0.05454012619142909,"173":-0.1062055653115879,"174":-0.026314143917928863,"175":0.003237417984207705,"176":-0.024770927330228988,"177":0.11820070855584816,"178":0.09963887010465079,"179":0.13178155787278664,"180":-0.01583869077998741,"181":-0.16189979648898287,"182":-0.024676307304522617,"183":-0.18261446978400733,"184":0.1029076460802463,"185":-0.08809623405361887,"186":-0.19752515020358077,"187":0.1155668612280972,"188":0.1961721291318412,"189":0.04433501065595704,"190":-0.1094139106270481,"191":0.0858871334520074,"192":-0.13852456965144025,"193":0.007287188348718444,"194":-0.09055887425092322,"195":-0.08934246311330497,"196":0.15845829724903165,"197":-0.14684000670063188,"198":0.1183715814007551,"199":-0.17233493927632018,"200":0.05245789012189812,"201":-0.09625710643384952,"202":0.14238500182191371,"203":0.06772562468242238,"204":0.17379082479405702,"205":-0.017888595239075256,"206":-0.11909911792681042,"207":0.09669259306403262,"208":0.19363259434816693,"209":-0.12504894350744053,"210":-0.0030962391464868302,"211":0.11279026193317508,"212":0.05451414830509333,"213":-0.11863137539142736,"214":0.12325617123145226,"215":0.14115174472575923,"216":0.0048520672614653275,"217":-0.024966750368721757,"218":-0.02385336925714727,"219":-0.05053802469810561,"220":0.047534948188359426,"221":0.034057828601256494,"222":0.15748535599735364,"223":0.09686716160880689,"224":-0.24137717071810108,"225":-0.08758095444117656,"226":-0.04322777311979333,"227":-0.06710902936402376,"228":-0.15844416312518314,"229":-0.1186303198812234,"230":-0.21126458217717564,"231":-0.4055009932826205,"232":-0.21442276316870487,"233":0.10676823306824883,"234":-0.2127269650893609,"235":0.0173375221699074,"236":-0.15748031452705055,"237":0.06720716589976296,"238":0.04724883509156151,"239":-0.13485952904815723,"240":0.3178459760794055,"241":0.18673402998541144,"242":0.1110832495168806,"243":0.0009945517482715953,"244":0.1384468940148704,"245":0.16660400047882706,"246":0.31396497972505855,"247":-0.1354406423569021,"248":-0.34595007091710595,"249":0.03564537271000958,"250":0.06405613012211642,"251":0.1266137712791128,"252":-0.17246591305969983,"253":0.1938150544067699,"254":0.1400366986441877,"255":0.02360719781901822,"256":0.07863548020540742,"257":0.24088450561508296,"258":0.13719405440161023,"259":0.10759201489010536,"260":0.1885072801925238,"261":0.1885806732544661,"262":0.1405025422757365,"263":-0.08619220340474067,"264":0.02355404258670086,"265":0.14203608082207245,"266":-0.17794085360557949,"267":-0.3671072346775714,"268":-0.08023441875619268,"269":0.09188515797005435,"270":0.014907740806342553,"271":-0.15798682923126575,"272":0.1501074332114271,"273":0.15213835411798327,"274":-0.2838728072791234,"275":-0.21045699935026327,"276":-0.11202366941491655,"277":0.27165777414873543,"278":0.30149204875685975,"279":-0.2501993850193019,"280":0.10476730275579321,"281":0.1532729594640471,"282":-0.1311759166676393,"283":-0.06773670714917168,"284":-0.2508372535567602,"285":0.004504717786413096,"286":0.2211323709380096,"287":0.09665873502790913,"288":-0.02179706919021282,"289":0.024767315025809287,"290":0.12849936628732386,"291":0.06415737680543901,"292":-0.2597431735140385,"293":0.0384551851318235,"294":-0.056589608342914974,"295":-0.12467600712231815,"296":0.04194310701845293,"297":0.11828275227326371,"298":0.1862881230593341,"299":0.049912313427391046,"300":-0.14690605511087082,"301":-0.1540567906740906,"302":-0.17173278366867972,"303":0.11029143473792326,"304":-0.08380150261926549,"305":0.08728197787410456,"306":-0.1819691610499038,"307":-0.09500817692475802,"308":0.11392580047292993,"309":-0.07860141160623241,"310":-0.09422446534727541,"311":0.0015137414276811308,"312":0.15399488350726903,"313":-0.3174212662814153,"314":-0.22677139367522706,"315":0.015965113092238276,"316":-0.15059867655317158,"317":-0.2906131492759691,"318":-0.16359967617150373,"319":0.16224521743859913,"320":0.15985104774515704,"321":-0.17076414916881366,"322":-0.15948941266427963,"323":-0.17996095977274243,"324":0.027339630588899967,"325":0.09333804197322562,"326":0.15346073276806219,"327":-0.03196767521792163,"328":0.06950807733133448,"329":0.10854051056898993,"330":0.12386224057766729,"331":0.06400163007246594,"332":-0.16792943610500563,"333":-0.04664039271399044,"334":-0.09839079772964421,"335":-0.15396711442428274,"336":-0.15441738617712394,"337":-0.10123950344602618,"338":0.1663839879091672,"339":-0.1626836578918977,"340":-0.0015708728951742954,"341":0.12697031428145714,"342":-0.1477125829968034,"343":0.0853264218670818,"344":0.20983276021714414,"345":0.130839735987222,"346":-0.03276445316462458,"347":-0.17800922219356535,"348":-0.19882835236145374,"349":-0.043375745604850836,"350":-0.17749368326787043,"351":0.2506392393549814,"352":0.18603151520661135,"353":-0.08035057754420481,"354":0.0866657282479795,"355":0.2948544341859483,"356":0.12146409817844164,"357":-0.07708262611593363,"358":0.07505861224633728,"359":0.11259224128008463,"360":-0.01945112929154074,"361":-0.08863055163870474,"362":-0.17380396025888703,"363":-0.19443563356501012,"364":0.13488558972610132,"365":-0.09986511363858003,"366":0.09552852702903596,"367":-0.04652409295565686,"368":0.18855644086138623,"369":0.1108723433366621,"370":0.6618856345467623,"371":-0.20344854585070007,"372":0.011622319055964215,"373":-0.18964333835654187,"374":-0.12451236255606456,"375":0.13282157573336204,"376":0.08224369395033178,"377":-0.13048332539879054,"378":-0.04367796532253934,"379":-0.19009961926322302,"380":-0.10738847822447334,"381":-0.12777720562927758,"382":-0.2351428996169652,"383":-0.09717475424563052,"384":-0.1317603815901178,"385":-0.023517400751399468,"386":-0.010649073856542377,"387":0.1711995629296784,"388":0.04127020676095556,"389":0.006879534613270589,"390":0.220594985280409,"391":0.39297619496768776,"392":0.2529343903582628,"393":-0.10551664157975732,"394":0.23967835602610016,"395":0.2151019589638965,"396":-0.017370673158658558,"397":0.14644612740393012,"398":-0.06449004816713823,"399":0.21337191112415665,"400":-0.1154532727757234,"401":0.06962658347235555,"402":-0.005501062520226449,"403":0.07077174538422902,"404":-0.1259688458228469,"405":-0.5464208947139605,"406":-0.10389748151924409,"407":-0.33077259567239686,"408":-0.01057953312303491,"409":-0.09968695450301832,"410":-0.23996504498743404,"411":-0.26910305308289584,"412":-0.17424426391244358,"413":0.038413625718058175,"414":0.007451029008547955,"415":-0.17281292642118193,"416":0.17019825802879718,"417":0.07083155334681819,"418":0.07184619676921507,"419":0.1895343759923247,"420":0.04773491962724796,"421":0.18091595895857926}},"2":{"bias":-0.240214304820246,"weights":{"0":-0.05988162468615629,"1":-0.06825563244282257,"2":0.290357352371239,"3":0.028207966578878058,"4":-0.4170048549962598,"5":0.1437447886240098,"6":-0.1415307379009674,"7":-0.01656566606983028,"8":-0.1082986211587983,"9":0.07161875168926052,"10":-0.0830678999997976,"11":-0.13315389557637328,"12":0.25045352782940017,"13":-0.06546979433459736,"14":0.26574736775321517,"15":0.20517619916176216,"16":0.2760426054557318,"17":0.03012183577349951,"18":0.130724341933612,"19":0.20700119793605043,"20":0.18888235514187496,"21":0.08996294657808777,"22":-0.19879367956608898,"23":-0.1008429530231241,"24":0.15086483459788935,"25":-0.0068547559826806145,"26":-0.06296268354495686,"27":0.10027711014730686,"28":-0.3969293750130294,"29":0.1226616231062387,"30":-0.2672997491299156,"31":-0.0001614129320802698,"32":-0.08844404258753834,"33":-0.11372242522115342,"34":-0.006381173694870896,"35":-0.2530647820142179,"36":-0.09131137666141008,"37":-0.18012969192524497,"38":-0.13994774990166298,"39":-0.07569154578237196,"40":-0.025026032086275154,"41":-0.003679423796488191,"42":0.07275984528984827,"43":0.1578351556861561,"44":-0.12644251347537472,"45":0.21365106878099385,"46":0.0817397510189783,"47":0.2713453355785788,"48":-0.04740672683916781,"49":-0.17299642976568938,"50":0.17372625711993034,"51":-0.21597692653090503,"52":-0.4400519145956681,"53":-0.18435255302657272,"54":0.30652163454671827,"55":0.1732099651140217,"56":0.05356593212142041,"57":-0.0016507816631096048,"58":-0.15753958427668643,"59":0.12028394300286493,"60":0.19894732482530914,"61":0.1433546025521428,"62":0.15668018691029537,"63":0.02962265226395696,"64":-0.08757445331925003,"65":-0.14818065731217164,"66":0.16982443906796876,"67":0.24137832303860454,"68":0.2024998069188828,"69":0.10319387450378471,"70":0.28962454803325566,"71":0.11714463824782169,"72":0.13244642226549683,"73":-0.09641302362577196,"74":0.11374315441491756,"75":-0.005595626299658899,"76":0.02806350956949663,"77":0.08378641979025277,"78":-0.1565224428993075,"79":0.21494508338931145,"80":-0.039065306342032646,"81":0.04176743939115624,"82":0.22618961816339703,"83":-0.09143332501189584,"84":-0.05827566884387714,"85":-0.19897574896892037,"86":0.018476560329810456,"87":-0.1629830410191431,"88":-0.01763306076555156,"89":-0.054022328417527125,"90":0.29148718057135214,"91":0.21732622416841374,"92":0.1816238554469457,"93":0.1881270745947026,"94":-0.10044938140914013,"95":0.1125803822692631,"96":-0.1711188966000932,"97":-0.11671069116466998,"98":-0.18166039916284205,"99":0.1716681282176352,"100":-0.17284030332837116,"101":0.08871391963279068,"102":-0.15543987365346637,"103":-0.07523554457922065,"104":-0.01726373266896894,"105":0.2899647642422138,"106":-0.1699803210075607,"107":-0.0682583600067578,"108":-0.04228507083388981,"109":-0.3550982758201491,"110":-0.01731907385368017,"111":-0.36681534614180583,"112":-0.18000708246891312,"113":0.04147123492915749,"114":-0.14416843696003293,"115":-0.05648996648584446,"116":-0.3232662338187968,"117":0.06356565484397322,"118":-0.07346742983948396,"119":0.007237348347641407,"120":-0.18290621749792854,"121":-0.032217581114898426,"122":-0.18174530228320662,"123":-0.08770591939570414,"124":-0.18527479772159675,"125":0.03863999819314503,"126":0.005974901833315584,"127":-0.14125045430122735,"128":-0.2982542158051855,"129":-0.19784877103278203,"130":-0.026155448070054356,"131":-0.1758012215723399,"132":0.10600914960747933,"133":-0.11440366344721732,"134":0.39858524756802965,"135":0.4325229556108926,"136":0.1988164629180125,"137":0.31364472426860446,"138":0.0438160577625791,"139":0.32707146508787793,"140":0.1558834882563686,"141":0.2485149061584805,"142":0.06048296957144774,"143":0.1461007976502536,"144":0.03394569066173759,"145":-0.16824019876869079,"146":0.057572293920636626,"147":0.015756703138223107,"148":0.15224719602829573,"149":-0.19794048189488,"150":-0.03205028522179754,"151":-0.07152488669802184,"152":-0.10657809634689881,"153":-0.1453844575468267,"154":0.16701732212530876,"155":-0.1267994165912282,"156":-0.17331074183147455,"157":0.1987394918300252,"158":-0.026902822933708367,"159":0.09918833695776012,"160":-0.04913088950592962,"161":-0.04369896622165322,"162":-0.19732024866880424,"163":-0.13921280614202186,"164":-0.2543221586887477,"165":-0.021607177418917305,"166":0.170595814084338,"167":0.14160812259246602,"168":0.18640102069990744,"169":0.04580622255317865,"170":-0.03842987068374509,"171":-0.1093921474569856,"172":0.012115928266946572,"173":0.04426282400524646,"174":-0.3764175941573414,"175":0.041147976530668255,"176":-0.11256564485068603,"177":0.13225029068175392,"178":-0.17352910747212927,"179":0.14653789234924003,"180":-0.05050555174345754,"181":0.12077023403721189,"182":-0.1366683282872852,"183":0.04819054072840585,"184":-0.08103838519160758,"185":0.008427743177477205,"186":0.18593442565742432,"187":0.11059217783916306,"188":-0.11980837117950595,"189":-0.03745835157677389,"190":-0.113526729453713,"191":0.06343241920360895,"192":-0.09288066463984838,"193":0.10967084303142516,"194":-0.048350517731847946,"195":-0.18425505867946262,"196":0.1583893544636982,"197":0.13345914144112267,"198":-0.05080425264207681,"199":-0.09442597740826196,"200":0.021902132872854526,"201":-0.19687563682805204,"202":0.07627294642047047,"203":0.11202853210017692,"204":0.00006862083319727549,"205":0.01294186728803181,"206":0.02296771401536731,"207":-0.047537427800465715,"208":-0.039579643398573096,"209":-0.0635750365641442,"210":0.13958279754337138,"211":-0.15897767689862027,"212":-0.015656294641922957,"213":-0.09238896101471972,"214":-0.11138965507526191,"215":-0.054214318091059956,"216":-0.11981355788523614,"217":0.09225351900217688,"218":-0.04621835540785781,"219":0.20204490851416013,"220":-0.032434193841246614,"221":0.0015630493578781106,"222":-0.16052768481254748,"223":-0.029267570332498535,"224":0.12061151642384789,"225":0.04163547409686769,"226":-0.10754300635313287,"227":0.07816556259823161,"228":-0.2026856764432835,"229":0.1300766565613161,"230":-0.20398428792170575,"231":-0.416713787785457,"232":-0.029967674104281798,"233":0.11136039830729316,"234":0.03435633164018993,"235":0.10318637067364066,"236":-0.14769027648502406,"237":0.14828709866000428,"238":-0.16816413637311362,"239":-0.08380892728801358,"240":0.3036858495302355,"241":0.3065324096381215,"242":-0.08622687218195359,"243":0.11129294986803327,"244":0.15600535572316918,"245":-0.01496357413898537,"246":0.3573209687089625,"247":0.12925503997514387,"248":-0.20415526762193462,"249":-0.14177564516124236,"250":-0.028472874006977532,"251":0.07991395283870299,"252":0.14016845908857029,"253":0.17941128421500552,"254":0.13768109893859795,"255":0.12602194867874775,"256":0.07696159428193357,"257":0.19801094337991107,"258":0.09473468454007503,"259":0.14428754846489172,"260":0.031477643434406344,"261":0.08048563819729815,"262":-0.09909239488496845,"263":0.13383919641518993,"264":0.07189652720589057,"265":0.006528435076466847,"266":-0.054090255310354836,"267":-0.5429794603245267,"268":0.05861012995871152,"269":0.023137376732864152,"270":-0.08667704291453708,"271":-0.18695924954708212,"272":0.13184953668360602,"273":-0.132244230169373,"274":-0.07085977140544658,"275":0.11409755313094239,"276":-0.21222723126935664,"277":0.28582130870105243,"278":0.18219194868936142,"279":0.06052399250024895,"280":-0.0019181727346145809,"281":0.18528820562481998,"282":-0.15928703596862825,"283":0.008571347635291092,"284":0.09712381303042492,"285":-0.009166989781525673,"286":0.27468046672113033,"287":0.4544725753191403,"288":0.26891834778485857,"289":0.2473366590317743,"290":0.18734020112290925,"291":-0.195492007849187,"292":-0.2040025457628696,"293":0.04980850245062358,"294":-0.1494177029800277,"295":-0.1419172951822834,"296":0.13270550004171483,"297":0.1956953562111504,"298":-0.13176594571962166,"299":-0.07908625748685351,"300":0.21534337772832063,"301":0.22036518141511474,"302":-0.2774716928429217,"303":0.0464371800746418,"304":-0.3589986973069649,"305":-0.027953330710684232,"306":-0.08730980286655023,"307":-0.30715807649612453,"308":-0.34900860474387535,"309":-0.24818324778528658,"310":-0.24608623891352785,"311":-0.10770174075420778,"312":-0.08788054722100579,"313":0.0562396422690786,"314":0.23088476520262277,"315":0.10729901535135372,"316":0.1968039878426252,"317":0.29843238284833773,"318":-0.1335183172089834,"319":0.10038257231340283,"320":-0.005624031934357818,"321":0.1195647401243839,"322":0.20418696946972076,"323":0.06174137534873497,"324":-0.10412995886202735,"325":0.07335079819196089,"326":0.16917934414631497,"327":0.11699529072075078,"328":0.1286980586405804,"329":-0.10706944374816375,"330":0.04523422535269644,"331":0.1445743578461285,"332":0.00803467723149585,"333":-0.10169142738786859,"334":0.0027647024471917797,"335":-0.1829461964158641,"336":-0.03577593447743716,"337":0.06926059563439961,"338":0.03609855355141416,"339":-0.09042779007129946,"340":0.011164762442910878,"341":0.012434870288189766,"342":0.09378575243900697,"343":-0.07912549081781164,"344":0.07524506079967645,"345":0.25514018103622205,"346":0.21230279039580333,"347":0.08145065266179659,"348":-0.06325077727816832,"349":-0.16906912623466408,"350":0.13941765952204613,"351":-0.05903442158473546,"352":-0.07713145658014776,"353":0.05073323380370154,"354":0.051463369659396525,"355":-0.18940121855736658,"356":-0.2137531252396694,"357":-0.2475826762167417,"358":-0.008111791300109443,"359":-0.2691274722037044,"360":-0.12374282895334952,"361":-0.07255133513060141,"362":0.00015500145120856174,"363":-0.09968570092211206,"364":-0.0617062814566662,"365":0.12010200180123091,"366":-0.18063706301117952,"367":0.15783897642125821,"368":-0.16499893646827446,"369":0.1654027226226171,"370":0.13009011805867346,"371":-0.08651705803634502,"372":-0.31756461494622634,"373":0.12283849197934475,"374":-0.04618699472408792,"375":-0.08355872443469878,"376":-0.022382943938508433,"377":-0.0967260854190092,"378":0.12159958372092257,"379":-0.05751509287422709,"380":0.1450047767911546,"381":-0.2108743153351203,"382":-0.32563370718497453,"383":-0.2684635279872064,"384":-0.29760777130103716,"385":-0.31633823507537207,"386":-0.1798963019618313,"387":-0.13853714116270677,"388":0.09531075145039973,"389":0.040423051279018254,"390":-0.017278961726067205,"391":0.22262058831266573,"392":0.029188102691232048,"393":0.016153916042844493,"394":0.09369352365632802,"395":-0.0382011123824176,"396":-0.10468629544206123,"397":0.14636846049409133,"398":-0.040099461666364626,"399":0.21397971146176029,"400":0.09563378489469955,"401":-0.0683690567683884,"402":0.16807582146066333,"403":0.21378972060542956,"404":-0.09747440498478191,"405":-0.6244861555365476,"406":-0.11244711484832874,"407":-0.4346753534735885,"408":-0.12605416005791842,"409":-0.2395168612350142,"410":-0.2036237988835733,"411":0.4716673890702969,"412":0.4205818601356481,"413":0.26935020483208894,"414":0.2669644281607482,"415":0.18966060023577624,"416":0.024472569378436674,"417":0.004521526139979381,"418":0.14305511902696239,"419":0.005001960557282105,"420":0.032218955077917416,"421":0.15377364884124223}},"3":{"bias":-0.2517388656543858,"weights":{"0":0.17062401580018532,"1":0.19123268965495885,"2":-0.45223911156413893,"3":-0.16722920861193694,"4":-0.4749696753894172,"5":-0.4501041685834241,"6":-0.12157708136113296,"7":-0.21249798141756782,"8":-0.1839031478452272,"9":-0.03004971800782258,"10":-0.0854926229250548,"11":0.06476427312406319,"12":-0.23386274146616967,"13":-0.1632085157499108,"14":-0.06921712896531831,"15":0.06531087938497276,"16":0.48630056448042164,"17":0.3260974237973911,"18":0.42431557653557717,"19":-0.011228643777294451,"20":0.0653330648521166,"21":-0.09620533342327359,"22":0.1497682835791997,"23":-0.28805745289893836,"24":-0.37440797160022954,"25":-0.18885836332355466,"26":-0.0056793763801097664,"27":-0.20285906852006194,"28":0.49409082759751277,"29":-0.12408125901310514,"30":0.33528294250977614,"31":0.03023171146266225,"32":0.10257728366065183,"33":0.09044456475697872,"34":0.2906094663430529,"35":0.2886733036267442,"36":0.02840160773688559,"37":-0.06484095845521294,"38":0.08947469007056981,"39":-0.10312208432755998,"40":-0.4149720424279388,"41":-0.20665899222388318,"42":-0.1700979473439057,"43":-0.08793372810186242,"44":-0.11085151651040201,"45":-0.27459122828874166,"46":-0.19953389587931114,"47":0.0480429883077257,"48":-0.1453808270523671,"49":-0.15542428255375815,"50":0.12004103405758686,"51":0.10172730371093033,"52":-0.1859881496961028,"53":-0.09851433836542911,"54":-0.26692891831711846,"55":-0.05874104151950897,"56":-0.20286313759878427,"57":-0.071927880590333,"58":-0.1314518732378726,"59":-0.1766095055770036,"60":-0.16359374926430242,"61":-0.08649120258330575,"62":0.03223954879444981,"63":0.06832416473447558,"64":0.06014102616187119,"65":0.0838157420338067,"66":-0.2620909822032028,"67":0.03286404442979146,"68":-0.028246866919719487,"69":0.19650587478520595,"70":0.06735188285307017,"71":-0.10237433325455994,"72":-0.10715375825858098,"73":0.11069444377128927,"74":-0.11191907587766292,"75":0.0877903451277061,"76":0.22987065444707452,"77":-0.20086342581275593,"78":-0.03971344050621533,"79":-0.19234468216911452,"80":0.15963531663054373,"81":-0.19004585641240487,"82":0.0627295724365623,"83":-0.09820413505365004,"84":0.15193460661016803,"85":0.04341293594789139,"86":0.12143312696839136,"87":0.02904773324401782,"88":0.13158056442410945,"89":0.19230315187295738,"90":0.034877148263494265,"91":-0.16608092214360903,"92":0.040399387839953844,"93":0.1723626238380718,"94":0.0762395635020406,"95":0.014420910994731178,"96":0.027172757987508463,"97":0.09748994500404776,"98":0.17022622163508178,"99":0.1068615729146347,"100":-0.17103365392826084,"101":0.14603572646911037,"102":0.016316946571270235,"103":-0.00425359543371384,"104":-0.10184043734271607,"105":-0.7422691287414098,"106":-0.013280482824189501,"107":-0.0960468181835966,"108":0.05538042806852561,"109":0.09088701018873489,"110":-0.06485594070890731,"111":0.05416622575266124,"112":0.23160404419206299,"113":-0.15516658978103293,"114":-0.06342762086728923,"115":-0.04385561574274211,"116":0.1253058318617737,"117":-0.004679005414712903,"118":-0.09269712449817022,"119":-0.04041908932856567,"120":0.10202020501374291,"121":-0.18103748112650436,"122":0.12274132464774525,"123":0.07561657875277285,"124":0.15342609461484633,"125":0.2689581778182921,"126":-0.1787580001914244,"127":0.06737924823234599,"128":0.2686031241290234,"129":0.14644486801206144,"130":0.09914782326885375,"131":-0.11484684069261548,"132":-0.02206302183951147,"133":0.056397658474803665,"134":0.31410751454462993,"135":0.15276312394250138,"136":0.02208192963915852,"137":-0.0832762282343137,"138":0.3954891181225256,"139":-0.09923682468258098,"140":0.0023340438432707055,"141":0.10830615193391904,"142":0.016657063099926258,"143":0.11146791839747483,"144":-0.15736375634126626,"145":-0.21157205784602623,"146":-0.21044448551286807,"147":0.018429681442070755,"148":-0.09347984399939317,"149":-0.03864280089212431,"150":-0.17261662165460384,"151":0.06970203383963022,"152":0.040125650374507965,"153":-0.17749007842928696,"154":0.07267491107323971,"155":-0.19722827584687053,"156":0.15891023833554485,"157":0.04155846833869377,"158":-0.15240698112681486,"159":-0.09587928950072658,"160":-0.03152638450624212,"161":0.08665811127564797,"162":-0.19688822414546212,"163":-0.11362715521911275,"164":-0.028979640663951457,"165":-0.08306485970576472,"166":0.08251211655804708,"167":0.17645249588587786,"168":0.0786012288514923,"169":-0.04437175221591253,"170":0.01191418929093356,"171":-0.14873520970792262,"172":0.13299281092742954,"173":-0.1933903519241846,"174":0.3760284530023572,"175":0.029129780163384154,"176":-0.026536866529330034,"177":0.07014713708756624,"178":0.008995158714696631,"179":-0.029319595781746217,"180":-0.1905509186613917,"181":0.02995697582965714,"182":0.07472367639442161,"183":-0.036864385794849935,"184":-0.1718401111911192,"185":-0.179698398359624,"186":-0.0673702567259152,"187":-0.06900883213723526,"188":0.16510247595527403,"189":0.14685666117780666,"190":0.05816836963408266,"191":0.026599608483490474,"192":-0.05999439094948676,"193":-0.15043482829683927,"194":0.18107548591899816,"195":0.055081339736327645,"196":0.09706349206027216,"197":-0.2005297325405045,"198":0.06696676046037855,"199":0.08410222350811872,"200":-0.0009432024551997906,"201":0.18579536415714862,"202":-0.10615783231756576,"203":0.05493432665254582,"204":0.18436170848959052,"205":0.07583296074408218,"206":0.11013121194451835,"207":0.11294604623108784,"208":-0.09414437835963094,"209":-0.19834775960439113,"210":0.003210866306817848,"211":0.09646515660564554,"212":-0.09209963888896609,"213":-0.10555242722500892,"214":0.06593005989918135,"215":-0.1976248811526923,"216":-0.12229828923046061,"217":-0.1149088594987983,"218":0.11671481676721872,"219":0.03927666607541841,"220":0.09167572348815532,"221":0.035201585397467865,"222":-0.12304385729608973,"223":-0.08284911225179628,"224":0.006514451963182933,"225":-0.053157300820533174,"226":-0.10722916499607253,"227":-0.18620568290646156,"228":0.06475839706552158,"229":0.16906795932454935,"230":-0.14352371121263938,"231":0.5677781227927144,"232":-0.03483870885155298,"233":-0.07582074229831212,"234":0.24554622174807703,"235":0.1225110382500771,"236":0.10982556820119152,"237":0.2879587213429251,"238":0.21052852623327273,"239":-0.050311255006051894,"240":-0.3710094906569013,"241":-0.17446748973076956,"242":-0.11210460271238909,"243":0.04089254618059652,"244":-0.13471032656779136,"245":-0.15381554796560046,"246":-0.12696845532400042,"247":-0.16704896957152307,"248":-0.042471727349838694,"249":-0.14509327096043825,"250":0.19719770584150229,"251":0.15140747242713032,"252":-0.07204191420946349,"253":-0.1007311923436712,"254":-0.10074232301948743,"255":-0.08369670903078943,"256":-0.030003456651478955,"257":-0.12031115918856226,"258":-0.1735112704813802,"259":0.07309768814297299,"260":0.3039985565524557,"261":-0.04713132480888954,"262":0.18128157220330293,"263":0.007964325815942383,"264":-0.10403426408683142,"265":-0.23284496975587066,"266":-0.11173226758868612,"267":-0.42280144121252483,"268":-0.14026186638075414,"269":0.03975113546353016,"270":0.05154003955302156,"271":0.10236421420940119,"272":0.07530576511935994,"273":-0.048774684115058975,"274":0.011513934612205498,"275":0.01124868806604828,"276":-0.019283172763614513,"277":-0.08300656129168657,"278":-0.11418526068958954,"279":0.10193657596478524,"280":0.14976602298923442,"281":0.19374075661123413,"282":-0.11109193205562806,"283":0.04175396120967345,"284":0.1981835502055948,"285":-0.23600620996361477,"286":-0.23760033302459474,"287":0.160044207770887,"288":-0.23457690979637366,"289":-0.028187406709993278,"290":0.10219309042287587,"291":-0.2184639147306299,"292":-0.03093615928312778,"293":-0.14292760323498355,"294":-0.03694636233569836,"295":0.049781235605352914,"296":0.002513059937371066,"297":-0.0053998143043209055,"298":-0.14085244845609343,"299":-0.10636459215312415,"300":0.13997907163040332,"301":-0.19145378995849938,"302":-0.13059650544120383,"303":0.12157543107732847,"304":0.13828721074189596,"305":0.21629074601085643,"306":0.15997669718423188,"307":0.127057679452082,"308":0.45587510947789645,"309":-0.04902081195509032,"310":-0.07090807525935229,"311":0.03775162035384503,"312":0.2519640411046868,"313":-0.17731910556211097,"314":-0.12884555241097642,"315":0.06402110265026113,"316":0.010681138356329927,"317":-0.43499506885510064,"318":-0.13075513319173926,"319":-0.02068581976391353,"320":0.05528447155926418,"321":-0.1667442392098298,"322":0.03557762277514539,"323":-0.0005236902898490449,"324":-0.08012878119986726,"325":-0.08536756668874658,"326":-0.2285838937206025,"327":-0.21948142850434268,"328":-0.22772117811930992,"329":-0.3099649286545663,"330":-0.2249618598669664,"331":-0.17442277163969838,"332":-0.10076301713129945,"333":-0.1544100804830252,"334":0.005840388949084569,"335":-0.17805817514242267,"336":0.0741603421545749,"337":0.16634452187015114,"338":0.1339850698246614,"339":0.08154268620744316,"340":-0.06269441293784439,"341":0.10617401227767335,"342":0.06200235609267235,"343":-0.05109722635223814,"344":0.057104797706936335,"345":0.056458262655818194,"346":-0.14582962546807254,"347":0.013567077679011635,"348":0.22183225240113724,"349":0.11326614581225214,"350":-0.00841550052958178,"351":0.058325006591433005,"352":-0.039425941831062614,"353":0.0980189028794016,"354":-0.14089161805084371,"355":-0.21376189156373696,"356":0.12271573804474362,"357":-0.016952087440755912,"358":-0.00949446725162882,"359":0.1195339860914916,"360":-0.16282018549962754,"361":0.1581442947175433,"362":0.16934054913719473,"363":-0.07424131043133675,"364":0.22948338621172623,"365":-0.06367953719983516,"366":0.07177219644914526,"367":0.02850789141533584,"368":0.16834928573227348,"369":0.0075078258939706806,"370":0.3845713769267669,"371":-0.19043113819485546,"372":0.3590115852871106,"373":-0.23404187354090417,"374":0.017486064504430587,"375":0.059783804716848604,"376":-0.08288232106721342,"377":-0.023180649436248976,"378":0.0786975052283898,"379":0.057809849262974215,"380":0.047971954628923084,"381":0.09802532916177643,"382":0.10786275174234654,"383":0.1996414673138412,"384":0.06128935590012325,"385":0.1989481711945716,"386":0.2316588971822933,"387":-0.1904802348338611,"388":-0.07539342936562698,"389":-0.024662734940634184,"390":0.29965797672865513,"391":0.1076114837984589,"392":0.013194190091709444,"393":0.12356367626901332,"394":0.02945565588729177,"395":0.08081458583274895,"396":0.20206842999039007,"397":0.020551727623370535,"398":-0.04010213014421281,"399":-0.10694378482093798,"400":-0.08025013144692071,"401":0.11270586004400289,"402":-0.03658226992395302,"403":-0.16712406992104017,"404":-0.15665778054148977,"405":-0.28439734618434964,"406":0.1282505330533786,"407":-0.31063495413389486,"408":-0.07734497611400329,"409":0.06413945335815582,"410":-0.20207668601131926,"411":-0.005165854607833681,"412":-0.11096521224198684,"413":-0.049238086697372514,"414":-0.11249271004965473,"415":-0.03274580626925579,"416":0.07362493902762869,"417":0.0009707170181911797,"418":-0.07991920230751391,"419":-0.14189441221542104,"420":0.12777189052964363,"421":-0.06960418094583998}},"4":{"bias":-0.3886612817771676,"weights":{"0":0.1536456631728565,"1":-0.235912546446048,"2":-0.115735815545727,"3":0.07118686681088744,"4":-0.20698685339964776,"5":0.09321568955738417,"6":-0.02881011799146585,"7":0.26153495685964473,"8":0.18931493789294335,"9":-0.08347781408865101,"10":0.0833699547302865,"11":0.13657390020991525,"12":0.06407230568788887,"13":-0.022715515964846753,"14":-0.241955804692042,"15":-0.08646236465937103,"16":-0.3855370283907581,"17":-0.0025442245885955945,"18":-0.15969743065543174,"19":-0.021123081614092733,"20":0.12545092880310127,"21":0.062006549720826004,"22":-0.06369709769601652,"23":0.5453588449407589,"24":0.43897767064237386,"25":0.31690547637960725,"26":0.29795892905916477,"27":0.2966793364271364,"28":-0.36360672987229553,"29":-0.17118782162179086,"30":-0.2854178136553247,"31":-0.05190129842015009,"32":-0.20361036349778708,"33":-0.017355086304404712,"34":0.02248962079671424,"35":0.03865683646891751,"36":0.07584705880337737,"37":-0.1910792610806954,"38":0.17454494094333398,"39":-0.1314174046272867,"40":-0.06341305536958,"41":-0.07955936035773466,"42":0.13083100362804315,"43":-0.05627594143501773,"44":-0.0956891149644509,"45":0.3992901078625739,"46":-0.033375217659818414,"47":0.15271626100934693,"48":-0.0627763863957523,"49":-0.11928695073662052,"50":0.09384703305618083,"51":0.18951477086721,"52":0.09673655171149359,"53":-0.07141032041618399,"54":-0.05696271132867518,"55":-0.006036228723096922,"56":0.09156774111350831,"57":-0.2850862859031051,"58":-0.18609884951752562,"59":-0.12678612940244427,"60":-0.05649293552533699,"61":0.04480885747700424,"62":-0.04219107585237448,"63":-0.12193991120870987,"64":0.09968404375573874,"65":-0.1966126714198154,"66":0.08766479314506741,"67":0.0450176765118565,"68":-0.0145090573016621,"69":-0.23068374400020183,"70":-0.2467194140808155,"71":0.03617675835723024,"72":-0.2576507230841608,"73":-0.0892817269906381,"74":-0.0561324551127368,"75":-0.3408463883890364,"76":-0.29159506295699067,"77":-0.037094401255970307,"78":0.14227653528865825,"79":-0.10595062645548677,"80":0.15854277812416423,"81":0.13648489050462267,"82":-0.1310306318126458,"83":-0.016236188816352786,"84":0.34401508184813984,"85":-0.09466785847915457,"86":0.24938700247015377,"87":0.03664810618192497,"88":-0.11610019082564635,"89":0.10137573776922519,"90":-0.11615950258048155,"91":0.1957609722671231,"92":-0.13970308679906387,"93":-0.027007790764584157,"94":0.048579669126045714,"95":0.11582611578153136,"96":0.22675880637650675,"97":0.09738146691542449,"98":-0.10813102804171437,"99":-0.20630019318491058,"100":0.03645482054652032,"101":-0.08308570431570378,"102":0.03233646242742454,"103":-0.013273758369072327,"104":0.20389202323374717,"105":0.2135711127978715,"106":0.10586907657451934,"107":-0.15405218564565168,"108":-0.1884342021204757,"109":-0.01519830256075085,"110":0.1152570829214573,"111":-0.03471636159094358,"112":0.12662297073169834,"113":0.12169799062381678,"114":-0.029068885479718507,"115":-0.09692703307400419,"116":0.030572261496767457,"117":0.19885296138377445,"118":-0.18103949930491142,"119":-0.014692898671612465,"120":-0.09143718575827198,"121":-0.01809538251125214,"122":0.12845011828296854,"123":-0.11474694386581966,"124":-0.2309096649017394,"125":-0.25475943952900054,"126":-0.0004503150381475626,"127":-0.20886668549120815,"128":0.04128042266711056,"129":-0.1098500085045372,"130":0.07276450665891512,"131":0.04967695052376463,"132":-0.1665053301441407,"133":0.15172208136986118,"134":-0.1680778817454337,"135":-0.08522703124859736,"136":0.14263434443504397,"137":-0.2337083370970091,"138":0.06769162911835838,"139":-0.3666227746936223,"140":0.026592455253909467,"141":-0.309662534723102,"142":-0.02768347938395841,"143":-0.0793972515725687,"144":-0.0863565063033786,"145":0.09784902607914482,"146":-0.059172565199545814,"147":-0.12730345744882965,"148":0.25984666373765486,"149":-0.0087583944038373,"150":-0.20334423300624327,"151":0.008956838557595256,"152":-0.07159316746927216,"153":-0.014461455683887878,"154":-0.029842905208521973,"155":0.1441729571243647,"156":-0.0428021044120897,"157":0.26128984169871416,"158":0.09158829158997824,"159":0.10798533952112302,"160":-0.1893482633149204,"161":0.06845741043692456,"162":0.1367410255200662,"163":0.131652599949502,"164":0.0873846989574137,"165":-0.06592488664395228,"166":-0.15509791161349623,"167":-0.10932853909516328,"168":0.09988393653353744,"169":0.20010071602451063,"170":-0.11141298972679287,"171":0.15893539376774693,"172":-0.11215246368787407,"173":0.036926395978144864,"174":0.14322818067784662,"175":-0.01517664329242603,"176":-0.07680554753481703,"177":0.16032742924632737,"178":0.07782072244299013,"179":0.1148148816107126,"180":0.13692862391132152,"181":-0.19283166643625596,"182":0.07296663374987036,"183":-0.08586664565236964,"184":-0.17037198446576338,"185":-0.09493960380980052,"186":-0.002233407188249928,"187":-0.10209363545095627,"188":0.03779003648010538,"189":-0.15350616474873244,"190":0.06428714814232973,"191":-0.19432748365480776,"192":0.021311772236823793,"193":-0.05909027787836178,"194":-0.16703355575073106,"195":0.017451624787333513,"196":0.19021360008784116,"197":-0.09862060209757192,"198":0.11970864339608783,"199":-0.15998510489289602,"200":0.07128782270133527,"201":0.17799075225274258,"202":0.11591562233347391,"203":-0.01246534388739232,"204":-0.0965062367345054,"205":0.1738375634563434,"206":-0.1283870674349055,"207":-0.13273950631061168,"208":0.1919881169677441,"209":-0.1768191034950454,"210":-0.1515035488826965,"211":0.08662607108562585,"212":-0.041057083757492986,"213":0.14095833618866813,"214":0.0755623293264377,"215":0.18038791248920708,"216":-0.021966335802004723,"217":0.1492723012625581,"218":-0.08039217907889191,"219":-0.10532801193014804,"220":0.17090024514235896,"221":-0.0949268711206873,"222":0.1654765475310758,"223":-0.09813672313476676,"224":0.08311074298382347,"225":-0.26098218390104905,"226":-0.17189010161199922,"227":-0.16958509722065856,"228":0.14302511977890814,"229":-0.13301521958315715,"230":0.07509354605741256,"231":-0.15847411680315784,"232":-0.09802726815237918,"233":0.12315336180199175,"234":0.20101203115309335,"235":-0.002096715182607617,"236":0.03136576881235396,"237":0.02927084337706251,"238":0.14910430714295766,"239":0.013417424170111495,"240":-0.07589188050830856,"241":-0.02330181722047695,"242":-0.010898378435365197,"243":0.02641399183044952,"244":-0.13939158827838885,"245":0.07007034960092504,"246":-0.010070273932518857,"247":-0.20134321926614612,"248":-0.033667861766942524,"249":-0.021935265631582778,"250":-0.308861921229017,"251":-0.10000131190798063,"252":0.012225223312884191,"253":0.2572674334305886,"254":0.22225325175907223,"255":0.04512539100908831,"256":-0.09777181548014295,"257":0.1385815525346153,"258":-0.18018012261244737,"259":-0.08583312464195542,"260":-0.0648755699511254,"261":0.14696420007732486,"262":-0.06691319621679473,"263":0.024276320326760213,"264":-0.023720206415902192,"265":-0.05701002188864319,"266":-0.03520523300057623,"267":-0.31663324450864166,"268":0.1377208734435059,"269":-0.03261491239458622,"270":-0.13869375287973582,"271":-0.4909876037030682,"272":0.05380968254920322,"273":0.21334402548521406,"274":-0.34191150020173183,"275":0.09298185831460122,"276":0.1458165353844436,"277":-0.07274865798708398,"278":-0.05682346196689156,"279":0.1287918011767915,"280":0.12135136874426705,"281":-0.061735145364268204,"282":0.21485527928841092,"283":-0.11975137231533392,"284":0.2512899865818048,"285":0.10652059580923999,"286":-0.005818113918361435,"287":-0.15039857946628254,"288":0.16416813570818234,"289":-0.2541232336768851,"290":-0.2534566794844208,"291":0.032041141988931814,"292":0.12108559909204696,"293":-0.18597904288727127,"294":0.1950379501671389,"295":-0.013703228897346554,"296":0.3223568847470255,"297":0.13982597629102497,"298":-0.10473950869730679,"299":0.228196733878429,"300":-0.0475073374836815,"301":0.24897756426732262,"302":-0.07919930848475733,"303":-0.08656204589718453,"304":-0.11847524883522506,"305":-0.06395327772871688,"306":-0.022158330889072632,"307":0.11236569777389238,"308":-0.252928722136911,"309":0.050935430385563106,"310":-0.008480911617910746,"311":0.17242953973230732,"312":-0.1309909156454394,"313":0.028332495000035235,"314":-0.05543924454715119,"315":0.04013411709034998,"316":0.23443662548181532,"317":0.11476251630812108,"318":-0.02693916931861883,"319":-0.13861278074550185,"320":0.09668255557478915,"321":0.22792556426186647,"322":0.0644861147087998,"323":-0.1589816907042124,"324":0.051030758933627546,"325":-0.013711354770861288,"326":0.26304723061114194,"327":0.13069528442197112,"328":-0.08224353247161366,"329":0.23480696513872315,"330":0.3252975384703432,"331":0.1829820934498822,"332":-0.10372011544174349,"333":-0.05614921885926699,"334":-0.02346667507187596,"335":0.08767602709239918,"336":0.09511284508857408,"337":0.00010000774063240391,"338":0.046618324803661904,"339":-0.0801445933989788,"340":-0.04772454608032594,"341":-0.035923188194195536,"342":-0.00450071226397273,"343":0.08825507176564144,"344":0.1440590765488493,"345":-0.2969596074771815,"346":-0.17354876562318755,"347":-0.15065301632090441,"348":0.003670055809002564,"349":-0.3612029238886752,"350":-0.04138979444063315,"351":0.09786537290786744,"352":0.1344266332766663,"353":0.12818729969898976,"354":-0.08292401921780083,"355":-0.31054350944896636,"356":0.16051138045048458,"357":-0.23418171010372948,"358":-0.04063824734785248,"359":-0.1301943161207029,"360":-0.15339331385930158,"361":-0.015007804499540464,"362":-0.05588231884426934,"363":-0.06079198982553221,"364":0.025716793489726452,"365":-0.10894468824361439,"366":-0.030529447234390845,"367":0.0055884897627273,"368":0.057308669111882815,"369":0.007533397168619709,"370":-0.17733670748984856,"371":-0.15800637209049062,"372":0.06181976326905096,"373":0.17402221870341394,"374":0.10220200210768855,"375":0.04403272632657086,"376":0.0815663203997268,"377":-0.17448790867240763,"378":0.19833454300652884,"379":0.0033416688356650666,"380":-0.10073371251677617,"381":0.15460586047728744,"382":0.1387350416611858,"383":-0.032108312075390735,"384":0.024508448118309743,"385":-0.11376912257374369,"386":-0.2050814054434391,"387":-0.1932865739675509,"388":-0.040810199245185995,"389":-0.19149199884887222,"390":-0.1387355705568753,"391":-0.08071943529666203,"392":0.042613554684893265,"393":-0.19595901850234637,"394":-0.07951077873337427,"395":-0.1644321112569352,"396":-0.16250580481065627,"397":-0.07430448528417362,"398":0.1638364787931881,"399":-0.09677463535022945,"400":0.1934313786868825,"401":-0.18413504092376484,"402":-0.011725512069323095,"403":-0.17367931700664133,"404":-0.0440332436804345,"405":0.29122998771761155,"406":-0.0028290368465977824,"407":0.35003828301257567,"408":0.25059763140378033,"409":-0.03926431053122633,"410":0.1707488551771096,"411":0.21370259697503066,"412":0.010749762104270364,"413":-0.0999272893238972,"414":-0.05020107331904263,"415":0.01367853475710114,"416":0.0007849297003492542,"417":0.08470298781083785,"418":-0.07025057215131295,"419":-0.40509376713635836,"420":-0.3685452457426279,"421":-0.03446607258221587}},"5":{"bias":-0.2756697229666071,"weights":{"0":-0.07003895172650045,"1":0.030253908127869624,"2":-0.11528343505873698,"3":-0.0636357804536338,"4":-0.3938744251577275,"5":0.21538989412744514,"6":0.038776834236957214,"7":0.05705595148879022,"8":0.20026951096070134,"9":-0.08316876810169417,"10":-0.11725453995607185,"11":0.10010714258186203,"12":-0.08897254929346622,"13":0.18069277156168426,"14":-0.07416660783701151,"15":-0.12646917034399313,"16":-0.004174900535268504,"17":0.1387547588940618,"18":-0.1318470150166145,"19":0.09625038077450025,"20":0.0038072590892335857,"21":-0.12090297499473195,"22":-0.035130358290241796,"23":-0.43437898618311455,"24":-0.34835926906417714,"25":-0.3267809939787792,"26":-0.13938443497930364,"27":-0.0823136406839156,"28":-0.10373600833397244,"29":-0.2746203935097975,"30":0.18735080634151663,"31":0.13344842332951243,"32":-0.0053055871239485195,"33":-0.20595730108782406,"34":-0.150611116076271,"35":0.13281918034709272,"36":-0.16325829573311973,"37":0.15138167384678328,"38":-0.08663866334820036,"39":-0.03735302622249996,"40":0.2210372331929736,"41":-0.0009158864604620009,"42":0.2658686220041291,"43":-0.11093564613425091,"44":-0.00850134235695177,"45":-0.4302273301437064,"46":0.13147413553628934,"47":-0.1339008234446232,"48":-0.1489948911653225,"49":0.18595119805468344,"50":-0.1244696052642393,"51":-0.1068444337689258,"52":-0.2221302409876049,"53":-0.18824135136600653,"54":-0.1529306468401978,"55":0.21005596915905983,"56":-0.03851657942242928,"57":0.04012050756166301,"58":-0.03871498194360169,"59":0.1699507905037152,"60":0.11757707619011025,"61":0.18563248118574288,"62":0.22761609619892598,"63":0.09966445974823407,"64":0.25474713857053827,"65":-0.1234703524527009,"66":-0.020081915295175997,"67":0.07907762962493724,"68":-0.1324138294589577,"69":-0.06968402842532051,"70":-0.007596340214670649,"71":-0.012329654791941428,"72":0.021849068140551903,"73":-0.012516077934164399,"74":0.1483786970319443,"75":-0.23088083914116958,"76":-0.24834417598290845,"77":-0.18467667270375304,"78":0.15104583579748115,"79":-0.09163832474985849,"80":0.05260126184438261,"81":0.014093003475552085,"82":0.12687567076333967,"83":0.02840637973204697,"84":0.2573112358145122,"85":0.051337308051457385,"86":0.24628617102261932,"87":0.3018775542180733,"88":-0.0838119358596591,"89":-0.01656096070529029,"90":0.03288198532425627,"91":0.11686216215480477,"92":0.08488717632168245,"93":0.1146080376742649,"94":0.10454397218997734,"95":-0.14159138164071547,"96":-0.39565201117808463,"97":-0.04184994969412845,"98":0.08868174147893014,"99":-0.009890690707808751,"100":-0.08352113672071046,"101":0.12869120240561394,"102":0.11368971991071548,"103":-0.01796803663026499,"104":0.18161543826413515,"105":0.23597523485599006,"106":0.08531823578675728,"107":-0.04775228319080952,"108":-0.23485138476103654,"109":-0.022811460054617858,"110":-0.01380294644761457,"111":-0.4027834375794893,"112":-0.2781344759070718,"113":-0.10454644712834613,"114":-0.3514601825771093,"115":-0.35419206023266697,"116":-0.4173655289030066,"117":-0.2758002031193451,"118":0.044200965164698895,"119":0.13903868295089583,"120":-0.1536342958329686,"121":-0.028530403221835938,"122":0.10507197787304137,"123":0.08677494696288861,"124":0.42853442327790403,"125":0.2613914906018866,"126":0.1872421320486115,"127":0.2440071987585584,"128":0.45794596313257174,"129":0.24845129952975767,"130":0.10951938826885287,"131":0.23900432790280218,"132":-0.1120890944837253,"133":-0.029680712483671694,"134":0.33296897803509085,"135":0.4205570800762594,"136":0.17461533660371598,"137":0.3151026834125283,"138":0.489598052168284,"139":0.534163382992427,"140":0.08899673307129338,"141":0.13249372354853808,"142":0.18468613556707084,"143":-0.05873294435133098,"144":-0.11016158410553761,"145":-0.18773696361199557,"146":-0.19963225729163278,"147":-0.045857195767666475,"148":0.08272781549300573,"149":-0.09481755445531452,"150":-0.2522196991117532,"151":0.15147395052722415,"152":-0.13198400830891008,"153":-0.013436016419373763,"154":-0.10658571056943388,"155":-0.15526087826781332,"156":-0.010466963357140417,"157":-0.08320421721476019,"158":0.03339735064455587,"159":-0.10120114026209837,"160":0.15172137014672965,"161":0.027948633861424516,"162":-0.13099121933470578,"163":0.104608270207883,"164":-0.2362666245387897,"165":-0.18007677003992528,"166":-0.08987947522983972,"167":-0.02267485130071211,"168":0.02349107269751807,"169":-0.022808748459755904,"170":0.13055096973214203,"171":0.0910585215429528,"172":0.1717644674603527,"173":-0.17151543885699752,"174":-0.0073873305025869964,"175":-0.16749773884624147,"176":0.13873520774204756,"177":-0.0771367809322897,"178":-0.14238346976200636,"179":0.0703690728791854,"180":-0.15781256299132804,"181":-0.014422284457670928,"182":-0.07048645158786114,"183":0.10939543566542775,"184":0.15208551835949602,"185":-0.05562504020390747,"186":0.13805962959953222,"187":0.053185800163626666,"188":0.055520578092516266,"189":-0.06677227485520718,"190":0.06957296467542079,"191":0.18300279254242124,"192":0.0600308934578801,"193":-0.1583346176777481,"194":0.14886302989386982,"195":0.16140357613829112,"196":0.13418472216503533,"197":-0.0392403027894131,"198":0.06996106937181161,"199":-0.11996283943876367,"200":-0.10923651945775491,"201":0.18932151493887103,"202":0.1229612747663419,"203":-0.07362017658058392,"204":-0.18127991943859165,"205":0.13667883168324466,"206":-0.018155669013630922,"207":0.05218311584044991,"208":-0.11068621209329642,"209":-0.09422143245904857,"210":-0.01524306029319048,"211":0.13253916883071817,"212":-0.12556467753190745,"213":-0.0992759452812617,"214":-0.11259353550836818,"215":-0.05473479526128706,"216":0.1679187523179172,"217":-0.3337645882702748,"218":-0.09434171584430892,"219":0.07730575253748037,"220":-0.01434477131227611,"221":-0.15438359476228916,"222":0.1329859019380831,"223":-0.14098088170159342,"224":-0.09618544420349227,"225":-0.22577515260099318,"226":-0.032556002761843617,"227":-0.043225928910921495,"228":0.12355447139774742,"229":0.1088540795924358,"230":-0.15990761702587225,"231":-0.26461425401005984,"232":-0.19461895279550076,"233":-0.1563343738961706,"234":-0.26407120389911165,"235":0.13333051180064107,"236":-0.09248344343457426,"237":0.023529021837191987,"238":-0.0458219840766212,"239":0.02983007093521585,"240":-0.10233298426538075,"241":0.15245915004677035,"242":-0.0954357013946322,"243":-0.13906771358025316,"244":0.017884338301769276,"245":-0.09080659301218882,"246":0.281401634469855,"247":-0.06843625083121871,"248":-0.2242611371831956,"249":-0.1389779209726044,"250":-0.14864644205445918,"251":-0.03442778273672914,"252":-0.051739413292614535,"253":-0.18583296967044943,"254":-0.05996066246929679,"255":-0.18483529954851177,"256":-0.18576913024817307,"257":-0.16119888708071017,"258":0.24606499689626843,"259":0.1543317504777598,"260":0.09360849400276569,"261":0.26864222073708754,"262":0.15805831734849718,"263":-0.10455437294964547,"264":0.2789437826096498,"265":-0.37280831458812486,"266":-0.33213655190186886,"267":-0.375798163445656,"268":-0.008342487796952807,"269":0.03062009591459909,"270":0.018374354201658796,"271":-0.24210669593269768,"272":-0.19722545642739864,"273":-0.17689464481015785,"274":0.05169804100105744,"275":0.026659465685711467,"276":-0.1978244518109178,"277":0.1313326744198574,"278":0.1775367143753253,"279":-0.18314331202240003,"280":-0.10720639145503678,"281":-0.11725717677802312,"282":-0.19966150115869521,"283":-0.06850719930995308,"284":-0.14850442445271936,"285":0.26756737295864336,"286":0.4559224940353491,"287":0.3205830061084874,"288":-0.0142088925646379,"289":0.3361557002526018,"290":0.2838654775342357,"291":-0.0853319386353972,"292":-0.07904233300610783,"293":0.06709652573995709,"294":0.0068830060396663905,"295":0.07705881871718669,"296":-0.24538475687315925,"297":-0.008988363370160363,"298":-0.23368531935480838,"299":-0.22703921016078638,"300":-0.14267070100057846,"301":-0.15262670992232466,"302":0.019084302749558794,"303":-0.11157146805209611,"304":-0.2461655901662117,"305":-0.039721304002580234,"306":0.13161645618057097,"307":-0.00677934160406164,"308":0.019170207939471717,"309":0.15656704152340564,"310":-0.044277017551212675,"311":0.11938043234291468,"312":0.03627997766663898,"313":-0.02973062704825563,"314":-0.06755623886289912,"315":0.029824497020913214,"316":0.14345931418318858,"317":-0.011631938321837761,"318":0.11064036970117505,"319":0.03472236665454804,"320":-0.04785822393685041,"321":0.09920094643943297,"322":-0.0020363325809582477,"323":0.16626648582079795,"324":-0.1707047123964832,"325":0.14347260197012246,"326":-0.03280979246252301,"327":0.00023569489769361063,"328":-0.08864315230489822,"329":-0.05221073998479378,"330":-0.10968739289346889,"331":-0.118845738029228,"332":-0.09515737591921017,"333":-0.05073344416127613,"334":-0.05147945243037668,"335":-0.14530498362317773,"336":-0.12936742091194667,"337":0.1555126262728682,"338":-0.0797243624840011,"339":0.09561626046928282,"340":-0.03755795659256115,"341":0.17558375845676344,"342":0.06420392063838495,"343":-0.22395817168047277,"344":0.00750499349054935,"345":0.15670086456026672,"346":0.23108107317586427,"347":0.061427343277590626,"348":-0.07525093911403637,"349":0.19845170971008597,"350":0.053074511133859296,"351":0.10861370059091902,"352":0.12023984690125214,"353":-0.1272680708740854,"354":-0.17288675137260281,"355":0.21187466722693532,"356":0.19076729773006604,"357":-0.11831978475306545,"358":0.20936088171705447,"359":-0.09296620528923412,"360":0.07536704193744621,"361":-0.1738549050542153,"362":-0.03814370542584681,"363":0.021108597665264548,"364":-0.1940649772003023,"365":-0.006797229125243892,"366":-0.05941305028481495,"367":0.03152085376833565,"368":-0.18031611005133494,"369":0.02428144870919817,"370":0.057218889085077704,"371":-0.1251023311025431,"372":-0.04229746213298593,"373":0.1805919496569215,"374":0.19651489490941182,"375":-0.14652708397833528,"376":-0.07539066072716116,"377":0.1789898278861617,"378":0.155435747021121,"379":-0.09003301569440936,"380":0.05565401384300324,"381":0.07392844311496391,"382":0.06959191026039631,"383":0.007269919550176686,"384":0.2029088632944699,"385":0.18557045782983822,"386":0.16196157825587706,"387":0.10313232947293231,"388":0.07874524546102522,"389":-0.16894158982126253,"390":-0.05378294896629,"391":0.036446866135972866,"392":-0.022383676109678324,"393":0.06843542048263844,"394":-0.15349544200988885,"395":-0.04215780351442169,"396":-0.1784116845585427,"397":-0.07142262164158263,"398":0.04760158602252257,"399":0.16742816898432022,"400":0.17363578287627474,"401":0.08016878663484964,"402":0.03992000891256325,"403":0.13599781157453567,"404":-0.09512192559530605,"405":-0.3083893311171776,"406":-0.10046608330546938,"407":0.06315652183074928,"408":-0.07377113502525162,"409":-0.15774580115818304,"410":-0.08728021423293145,"411":0.09758922961113743,"412":0.24784018741484365,"413":-0.04825965209029499,"414":0.15639746408326508,"415":-0.12698412740012163,"416":0.1076142322242189,"417":0.16501995050621152,"418":-0.13653349255876318,"419":-0.24569275558085799,"420":-0.1284944320418895,"421":0.09801527112633336}},"6":{"bias":-0.2389641278009831,"weights":{"0":0.04488179567362009,"1":0.23773618253809212,"2":0.10552102885700654,"3":0.22959817839585545,"4":0.10685948278878854,"5":0.2664421495976341,"6":-0.01628798432946967,"7":-0.360866887465679,"8":0.05332528728318732,"9":0.08306562973226966,"10":-0.07331794842386813,"11":0.14407238630905359,"12":-0.12691184642292586,"13":0.1221479091413222,"14":0.11166296918365218,"15":0.018916209499080613,"16":0.202452869350364,"17":0.2644489937930583,"18":-0.005716170127831255,"19":0.21942953867670373,"20":-0.1121401782010458,"21":0.02387480473663543,"22":-0.2911611956215618,"23":-0.15749596756967274,"24":-0.2834789577979522,"25":-0.1556473148991579,"26":0.10166578517081594,"27":-0.08551453368058835,"28":-0.1445342113738989,"29":-0.13293501854553855,"30":-0.2552822031441601,"31":0.07640868042618255,"32":-0.2092066977771567,"33":0.024375857110244308,"34":0.008787757359489121,"35":-0.06751857773760472,"36":-0.14355405185476985,"37":-0.12005121109383055,"38":-0.03949076576468244,"39":0.03399052346794752,"40":0.2414372339902304,"41":0.12613260082900446,"42":-0.09559178204100299,"43":0.09287642477118493,"44":-0.13697318397712852,"45":0.0767840061308769,"46":0.21373549433995315,"47":0.16437880098064267,"48":0.17776284549866303,"49":-0.03699515986462698,"50":0.13154978151283445,"51":0.07834397712250299,"52":-0.3052736210286792,"53":-0.13049173967030553,"54":0.09971102904662164,"55":-0.11382457464974736,"56":-0.1702507894351998,"57":-0.1536781930431066,"58":-0.11852724376960946,"59":0.05301626167284784,"60":0.19450554367508144,"61":-0.016805692486574847,"62":0.1505712721011137,"63":0.11670929778238501,"64":0.14104155270089647,"65":-0.12125587932949272,"66":0.05766947602357559,"67":0.08492730257137487,"68":0.02498020855903194,"69":0.048101724080688725,"70":0.08127444903591136,"71":-0.10147298874531487,"72":0.12009233296630871,"73":0.18312564876035692,"74":-0.13714103886811743,"75":-0.23612095188089563,"76":-0.12931283719705852,"77":-0.031476510773690125,"78":-0.04649716436754357,"79":-0.1651066811942831,"80":0.06525596627683959,"81":0.02260461587299278,"82":-0.07671798344797663,"83":-0.34298748110806365,"84":-0.3572293404125235,"85":-0.06006325389011853,"86":0.03632851015929117,"87":0.021284129966125165,"88":-0.17453447112705156,"89":-0.048972054774803736,"90":-0.19838155403403473,"91":-0.13158864275067295,"92":-0.09431081178045818,"93":0.027174129677050195,"94":-0.1954507942451885,"95":-0.20495304607741133,"96":-0.008944250368824274,"97":-0.11440134847591456,"98":0.02034520387898781,"99":-0.12809904017178345,"100":-0.1834628882001794,"101":0.14005402911090606,"102":0.12593721608193223,"103":0.04849343606340224,"104":-0.03422749365958744,"105":-0.689273816610983,"106":-0.025051360349843056,"107":0.1262506966876685,"108":0.26306297481874846,"109":0.20088494810485324,"110":0.1556758763187196,"111":0.13056350318658264,"112":0.06542160697314156,"113":0.10775714907522878,"114":0.06430703910835972,"115":-0.04408882136999676,"116":-0.11394575662073744,"117":-0.0735474943735691,"118":-0.03793480401392343,"119":-0.13928760479024851,"120":0.15341147287547052,"121":0.25098309152513415,"122":0.06431642056884655,"123":-0.04345556955956085,"124":0.07515748594918258,"125":0.05533364296429426,"126":0.16380602007086117,"127":-0.24033224615720825,"128":0.10764780522103921,"129":0.17519152634522878,"130":0.013447261364385652,"131":0.2531919245414632,"132":0.16855325524714174,"133":0.2719980448116807,"134":-0.1956409845767013,"135":-0.21152093345956097,"136":-0.09113707761145162,"137":0.15598578322441975,"138":0.16844075011742857,"139":0.024895459469606848,"140":0.10247269378816132,"141":0.17019713454544932,"142":0.02678902458759567,"143":0.084883689697967,"144":-0.29687255470453067,"145":-0.28813939144200956,"146":0.06356116991891776,"147":-0.19769512527334993,"148":-0.14623566596170925,"149":-0.1832202598483379,"150":0.1727911166917763,"151":-0.13547261202223077,"152":0.09269357842965241,"153":-0.008533006513417917,"154":-0.03286903148553694,"155":0.12466600761758871,"156":0.11597900400825895,"157":-0.4663118758045163,"158":0.16344172098157045,"159":-0.12129914783919626,"160":-0.1628651793072063,"161":-0.11792000521262824,"162":0.02058036881692139,"163":0.08529787785590101,"164":0.0771193788536833,"165":-0.006455015162433804,"166":-0.16446785132937455,"167":-0.12477037098129605,"168":0.04930012910160028,"169":0.1902710723816066,"170":-0.0765343187712988,"171":0.060139495818190204,"172":0.14789276182286198,"173":-0.19700399847367192,"174":0.6618546443143594,"175":0.10448942445741861,"176":-0.014899570698236681,"177":-0.005579761755419538,"178":0.03781234664744381,"179":0.02273747604733017,"180":0.07208402049694099,"181":-0.07489511796609141,"182":-0.022167232956989445,"183":-0.08843176583592864,"184":0.06748451490998163,"185":0.1468703523350282,"186":0.14683966884858812,"187":0.02685488726364622,"188":-0.036022206633051064,"189":0.04970204835157511,"190":0.1665134634835331,"191":0.0866305248996635,"192":0.13957067799516693,"193":-0.19213115001389075,"194":0.1738226927571528,"195":0.13878610119542564,"196":-0.214962530418558,"197":-0.06307626512770988,"198":0.041027586994672544,"199":0.08456864325722363,"200":-0.08309481726263838,"201":-0.1434924049177705,"202":0.154321660019052,"203":0.11964154991671043,"204":-0.12832286645481944,"205":-0.17497625679234718,"206":-0.07306325876568827,"207":-0.04593354232881586,"208":0.165022782512781,"209":0.08249972226263277,"210":0.10233942841097599,"211":-0.11910138514289982,"212":-0.18341631957866,"213":-0.014025436867388538,"214":0.017840676556674154,"215":0.1733270634332482,"216":-0.09618748590697082,"217":-0.265910867777448,"218":-0.10326250109736501,"219":0.11880760502522036,"220":0.16712587207576668,"221":-0.19320729662193137,"222":0.08606940282817596,"223":-0.08966150387193463,"224":0.24509812094187167,"225":0.060635146674691845,"226":0.20377675926439026,"227":-0.1400259253897577,"228":-0.1095592854859716,"229":-0.09793658235010677,"230":0.2089084831144119,"231":-0.006546563141501989,"232":-0.09248965117908045,"233":-0.022630296604802744,"234":-0.34572448894400526,"235":0.16971090620144613,"236":-0.08648400592568178,"237":0.20182880172860532,"238":-0.021861876795643803,"239":-0.03153459950664807,"240":-0.08941335188528922,"241":-0.2225574345511146,"242":-0.18039712946874675,"243":-0.16805610373031615,"244":0.0791535320247563,"245":-0.004565302237541163,"246":-0.4922294050286535,"247":-0.006945572959922372,"248":0.4826006176685068,"249":-0.2701731660995261,"250":-0.3302862291590857,"251":-0.2866579781563,"252":-0.11127071221593349,"253":0.35320073450066974,"254":-0.025715396347543603,"255":-0.03719969146906021,"256":0.16170425675011982,"257":0.10340644342059839,"258":-0.05078473136444991,"259":0.1468154289364306,"260":0.16369828173738402,"261":0.20799053443749965,"262":0.1260900500251108,"263":-0.02448965864334332,"264":0.2287579884271959,"265":-0.16262039327286126,"266":0.0204504249056468,"267":0.7227307500802524,"268":0.12072717008221809,"269":0.272478697363266,"270":0.10706476015582002,"271":-0.045277379234685694,"272":-0.1125699144020857,"273":-0.04424266023135073,"274":-0.03774905976233112,"275":0.06286033463834614,"276":0.017147645112682554,"277":-0.13515720382033722,"278":-0.39091276960424926,"279":-0.4765919880850686,"280":-0.26353739820971656,"281":-0.400726565195571,"282":-0.09566626689363364,"283":-0.4028475391722789,"284":-0.3983867653381322,"285":0.1897595786316609,"286":0.12053594271009681,"287":0.20625323199079626,"288":-0.05083419247995946,"289":-0.12018444350187613,"290":-0.09341021514681434,"291":-0.027528249251864197,"292":-0.09864542210802078,"293":0.10249017812466105,"294":0.035189804129707805,"295":-0.17117503667007272,"296":0.480784931556711,"297":-0.10208841810687001,"298":0.23131002518432786,"299":-0.03822688280887544,"300":0.10418329908052637,"301":0.17371757203201893,"302":0.16374555640709873,"303":-0.0645888019848082,"304":-0.021748658078208385,"305":0.03930188172594514,"306":-0.1252811250624505,"307":-0.14300456293871772,"308":-0.05811047203816425,"309":-0.07710402894238311,"310":0.15520031435183348,"311":-0.0697620926460101,"312":-0.13302066426194264,"313":-0.17515863244260702,"314":-0.1991665641937818,"315":-0.2112057199958391,"316":-0.08762295160440156,"317":-0.37982351266584813,"318":-0.022009826009120437,"319":-0.01535623486739936,"320":-0.054494141511481534,"321":-0.1544247535237205,"322":-0.14871686058379124,"323":-0.13398343475147367,"324":-0.16695295517240547,"325":-0.16073008097572444,"326":0.009412358491415883,"327":-0.2668068408322124,"328":-0.13128807962648467,"329":-0.22878019700046304,"330":-0.03140364247456315,"331":-0.25811592098232333,"332":0.02482357723338242,"333":-0.205287417462001,"334":-0.023708204012670504,"335":0.12317088272361601,"336":0.16255412348178302,"337":-0.059644277838912955,"338":-0.059167089719129054,"339":-0.0492744921833179,"340":-0.05603259018422613,"341":0.11165571165529713,"342":0.028641220028346518,"343":-0.14242276671234838,"344":-0.06948616952089051,"345":0.1583063380635249,"346":0.34502169630930346,"347":0.17039529755862473,"348":0.03876304080456113,"349":0.17088051180226685,"350":-0.11695318403865615,"351":-0.11272507764118567,"352":0.16854007355792677,"353":0.1515488490678328,"354":0.20628609456198357,"355":-0.15358499515929636,"356":-0.011074337142072371,"357":-0.1608492117175008,"358":0.0886887537676834,"359":0.1653486536490745,"360":-0.16020258526577918,"361":0.1392004645832061,"362":-0.10737065346648354,"363":-0.0998147236836758,"364":0.1699372459368647,"365":-0.075953389742033,"366":-0.1436005541181196,"367":-0.15564089064901837,"368":0.13910518067947267,"369":0.151731625661105,"370":-0.3438083004860653,"371":-0.017008700551453773,"372":0.06956174987302033,"373":-0.6929438492230792,"374":-0.3971022125244953,"375":-0.23975237344975198,"376":-0.14447661021463382,"377":-0.11143958603744522,"378":-0.14814543928178328,"379":-0.18932000049818426,"380":-0.221953154504066,"381":0.19714505796282702,"382":0.43572840196604457,"383":0.20553229821788252,"384":0.42775443258470186,"385":0.17623898544570357,"386":0.03813025569653748,"387":-0.02442005994448149,"388":-0.11460152546452158,"389":0.09156939470873078,"390":-0.16454797767026033,"391":-0.1535483021377997,"392":0.08417153490362914,"393":0.16854963710513904,"394":-0.08496005631126079,"395":0.05161921226622101,"396":0.1333251025828287,"397":0.07054186462437041,"398":-0.049967680380251546,"399":0.1050330594306501,"400":-0.05292391441953392,"401":0.18951763148619516,"402":-0.0405232670476747,"403":-0.15111224288594377,"404":0.09793458802071263,"405":0.4032323693125275,"406":0.1827555671908968,"407":0.09958535956480805,"408":0.38324014867813244,"409":0.06516059429944128,"410":-0.005246725770820848,"411":-0.4105754016457647,"412":-0.022454837792260308,"413":-0.3035154651109362,"414":0.08905798035612941,"415":-0.07954143916018871,"416":0.05637677020835834,"417":-0.11664694769046006,"418":0.08954873916445763,"419":0.08875365212834474,"420":0.0018187230441579778,"421":0.0335945371603402}},"7":{"bias":-0.31823605557633233,"weights":{"0":-0.19305847948721463,"1":0.14330916264670415,"2":0.3546257557255074,"3":0.26272372826303625,"4":-0.20425493013092255,"5":0.05998495048741308,"6":-0.13055763730798278,"7":0.0838936622878865,"8":-0.12477094966156341,"9":-0.0886176545712932,"10":0.04644947885655636,"11":-0.02106381200770626,"12":0.24939276914385058,"13":0.0741723931294808,"14":0.26508824614863585,"15":0.07021442512735583,"16":-0.2852462831121773,"17":-0.11324767273691434,"18":0.013930490144149366,"19":0.08034116820177145,"20":0.14172247891814813,"21":-0.0013248812060465875,"22":-0.1361956956264246,"23":0.4996014526355897,"24":0.23605443713306093,"25":0.37161682882345637,"26":0.25116812984406833,"27":0.08748687746550876,"28":-0.3048538714039967,"29":-0.2411543834303754,"30":-0.3335828150841653,"31":-0.21036296436310725,"32":-0.2246455387044193,"33":0.0013757090526084553,"34":-0.2353974404617966,"35":-0.23331968117709664,"36":-0.10086447661982412,"37":0.15884275983392834,"38":-0.02536504540569665,"39":-0.10559825806944315,"40":0.12046627333766192,"41":-0.03805713135461426,"42":0.15389415384548719,"43":0.015577087525866984,"44":0.08744367882298519,"45":-0.050978462304941616,"46":-0.07167302877415929,"47":-0.013060783938739443,"48":-0.044118648656153836,"49":-0.04681850044685781,"50":-0.13321902844205713,"51":-0.4068332870922641,"52":-0.5788155840925236,"53":-0.268514711293057,"54":0.012329273962810807,"55":0.17935357789339754,"56":-0.19723381308511126,"57":-0.26900380999981466,"58":0.1197251019386071,"59":0.35475339720006516,"60":0.13776893519190345,"61":0.08773186625714101,"62":0.3304526912080696,"63":0.027145074688297754,"64":0.2779285083837478,"65":0.026094061042895647,"66":0.08675167053068425,"67":0.007494223822905061,"68":-0.17021566351573175,"69":0.1600648399134638,"70":-0.05393802926322305,"71":0.03406009129783515,"72":-0.011132624947446707,"73":0.13344932661977763,"74":-0.04497613721511226,"75":0.3595703066501627,"76":0.3008408820787739,"77":0.1568042658033362,"78":-0.1564783109163433,"79":0.18785215607007663,"80":0.07571796998746083,"81":0.13880309898593501,"82":0.11916763568243423,"83":0.11994609430132021,"84":0.2900875235395624,"85":0.22744405829874167,"86":0.00396828674857461,"87":0.21839406102536688,"88":0.014829101582098433,"89":0.23001834889387487,"90":-0.07010481302205061,"91":-0.13439492245989892,"92":0.01057534620783532,"93":-0.05572648683152354,"94":0.14332878703275279,"95":0.16133388516359004,"96":0.26926929541040584,"97":0.1610960509671896,"98":-0.06698076694663804,"99":-0.2551385081197024,"100":-0.12909836651869877,"101":-0.02557575718474057,"102":0.12612235860018298,"103":-0.03157912879515751,"104":0.03784054252105989,"105":-0.011098704913455437,"106":-0.002678255179298836,"107":0.099391586899824,"108":-0.07342630506770798,"109":-0.2915782384250528,"110":0.06335849264565292,"111":0.07710724010809583,"112":0.06492772326240549,"113":0.16876378371394832,"114":-0.10609944792346472,"115":0.20350014813757553,"116":0.4166140405107031,"117":0.2755307744355865,"118":-0.07359630652773778,"119":-0.14445477080884606,"120":0.049746691783507206,"121":0.07722550838615264,"122":0.08839652478327754,"123":0.01584105746586139,"124":-0.17059326834903285,"125":0.1937489739832667,"126":-0.15575187059467602,"127":-0.0596525985803471,"128":-0.24867379164804435,"129":-0.2179792314923051,"130":-0.07087143510165723,"131":-0.0607455229439276,"132":0.1466195458668531,"133":-0.13286943849137187,"134":0.13829030408400664,"135":0.172443146573518,"136":-0.009960768835011907,"137":0.19342443026071265,"138":0.06345492123938734,"139":0.2142533720452171,"140":0.11795253034079337,"141":-0.06701343611361817,"142":-0.005635344139835986,"143":-0.15176282427119628,"144":0.03890220057661256,"145":0.00002918686860726481,"146":0.0034082102937313835,"147":0.1980979597682586,"148":0.09178528223637497,"149":0.07746841044869143,"150":-0.03637129413997819,"151":-0.15439172125382736,"152":-0.10971169062796826,"153":-0.12534249876798628,"154":0.10366157360232557,"155":0.1451975041424871,"156":0.07481180381728422,"157":-0.010403145324514574,"158":0.1418599118719832,"159":-0.21662481295242308,"160":0.14268317565787111,"161":0.02662771917657839,"162":0.09648363179010022,"163":-0.003572688901235576,"164":0.19193298216360224,"165":-0.1090156411640895,"166":-0.1026741167433991,"167":-0.07740691676531485,"168":-0.06678114689479608,"169":0.09618946153906957,"170":0.16617888233848313,"171":0.18507878672261,"172":-0.12320466238533641,"173":0.04498948890574818,"174":0.20348062935274028,"175":-0.04640879936615692,"176":0.143960559193635,"177":-0.06491776529608996,"178":-0.09387136819045505,"179":0.18902792901119125,"180":-0.08503282864170357,"181":0.04575415651114625,"182":0.01165334093883787,"183":-0.14703988785971567,"184":-0.17795233435047153,"185":-0.08769119464982317,"186":-0.036445626810662705,"187":-0.12278777205453106,"188":0.07424420830083556,"189":0.09928925665521969,"190":0.17023900891307475,"191":-0.0178559654947616,"192":-0.06456748049330947,"193":0.1504774900894549,"194":-0.16231061913841538,"195":0.2197518387555211,"196":-0.09471627689269929,"197":-0.06262763347675374,"198":-0.12432679552416395,"199":0.07815713338689433,"200":0.15077529902929565,"201":0.041820382866804146,"202":0.17065294069288797,"203":0.016728257100298953,"204":0.1721629887355544,"205":-0.06192648809847262,"206":-0.01837768572498099,"207":-0.007938084439640627,"208":-0.11459030270480873,"209":0.1392907389540107,"210":0.154538948629392,"211":0.06241867917853445,"212":-0.1845468436331142,"213":0.08693295118062418,"214":-0.13284207638428994,"215":0.013049132262041041,"216":-0.1514842180493427,"217":-0.23196295090479874,"218":0.17344050061766894,"219":-0.19631773575322978,"220":-0.0019216108513936195,"221":-0.12428098794638097,"222":0.09532576328701368,"223":-0.14400026826126583,"224":-0.11770288767148357,"225":-0.008082272881924202,"226":-0.12537732565772414,"227":-0.22610142031616845,"228":0.107343301934972,"229":-0.11507420420333937,"230":0.003200176154791291,"231":-0.423531739191259,"232":-0.07814316063606379,"233":-0.13342821282451722,"234":-0.08543948460326527,"235":-0.032471176343386504,"236":0.08619737925948731,"237":0.09184474527658736,"238":-0.17379953850600743,"239":-0.1316163758678282,"240":0.26976106633899144,"241":0.04461538759197305,"242":0.16320811815018513,"243":-0.15896294197245064,"244":0.23531385775667152,"245":-0.19782289663366895,"246":-0.03024261824618926,"247":0.12809984615886175,"248":0.026347083187556262,"249":-0.2648116425947494,"250":-0.19979143966057378,"251":-0.1855519909962322,"252":-0.3172652966120432,"253":0.2526322475506728,"254":0.061001671959822985,"255":0.1258476817792402,"256":0.1599719153388701,"257":-0.16485682768144586,"258":0.08171460509248063,"259":0.11817599016524977,"260":-0.03962830033137812,"261":0.15070647706070942,"262":0.16907597782978148,"263":-0.12484189408115587,"264":0.11479153463152934,"265":0.2356894954321509,"266":-0.12614105505966947,"267":0.17274275622773588,"268":-0.05533820173086667,"269":-0.08153476798958124,"270":0.13698800924568186,"271":0.08857053882342876,"272":0.20010623155920085,"273":-0.04217780254796113,"274":0.07559396528614247,"275":-0.05615394871916579,"276":-0.11903670166330785,"277":-0.07547144050181048,"278":-0.1195541245381181,"279":-0.18735514769595846,"280":0.010566275878392753,"281":0.05011878307968497,"282":-0.10844069681774116,"283":-0.15310914671553652,"284":-0.10414804092724085,"285":0.22148446450202577,"286":0.26266197062435065,"287":0.24414902756399562,"288":-0.2608128666008263,"289":0.1719239540425159,"290":-0.03742859062521438,"291":0.06306909220191667,"292":-0.17452954717597022,"293":-0.0056038008332723694,"294":-0.2790035768997324,"295":0.16625692683905313,"296":-0.023348620198304578,"297":-0.14550833955040482,"298":0.028267747293139484,"299":-0.24935858487378332,"300":-0.21553668248896315,"301":-0.09220393735933825,"302":0.17082745776242428,"303":0.13250914235041883,"304":-0.10536545350662169,"305":-0.1940455856356707,"306":-0.1026866157694102,"307":-0.0539342447183044,"308":0.20211075222309416,"309":0.13807103509170188,"310":0.18243613436087808,"311":0.05923957574963648,"312":-0.18014796209986522,"313":0.2208078063069777,"314":-0.12527492484083283,"315":-0.191626162119962,"316":-0.007247215474895835,"317":-0.1164977408247559,"318":0.1508626883444888,"319":0.09773587737005637,"320":-0.04494126898377336,"321":0.11005945379249267,"322":0.0037951161970318768,"323":0.011390535169746537,"324":0.07789688322171119,"325":-0.2364304592023951,"326":-0.010978992745594409,"327":-0.17958262576716733,"328":-0.24381501467376818,"329":-0.5144280021153701,"330":-0.0946910740631775,"331":-0.0361005275759266,"332":-0.17924720546934808,"333":-0.08455128836222539,"334":0.1200145593032184,"335":-0.028798031834491113,"336":0.10197765379390479,"337":-0.14794055908628825,"338":-0.0013401328626782352,"339":0.09905977351359932,"340":-0.08936635875683901,"341":0.04505703568332638,"342":-0.013908109732848067,"343":0.07285843901723432,"344":0.15605937703172684,"345":0.27095559870571584,"346":0.20443643685293406,"347":0.09887954999469956,"348":0.31587297729820124,"349":0.4087018680597986,"350":0.12692180481666282,"351":0.27201638562038893,"352":0.1126451212952926,"353":-0.044909066469150216,"354":-0.08327625823564533,"355":0.1945603800007562,"356":0.18990240887687423,"357":-0.09898792743872169,"358":0.10569608031340964,"359":0.18658484492660363,"360":-0.16770702025440082,"361":-0.15534491863965613,"362":0.1848330470851369,"363":-0.15986379257867034,"364":0.171573104436411,"365":0.09376112909474636,"366":0.15164123320048653,"367":-0.07597863451419251,"368":-0.09013819174478481,"369":0.16983345079335524,"370":-0.12073726712622031,"371":0.11749138346777839,"372":-0.007137826803778087,"373":0.08792553979439054,"374":0.03917490317831379,"375":0.12580712211908676,"376":0.013308323042127885,"377":0.12903337198259107,"378":0.01569022095088519,"379":-0.10958163097951394,"380":-0.058742134342961834,"381":-0.05108095053512318,"382":0.1624153153555208,"383":-0.08441773329829318,"384":0.19992074569854681,"385":0.048463180929284894,"386":0.10616608379900959,"387":-0.2047768266745834,"388":-0.15500666882741881,"389":0.04534943871079506,"390":-0.3001285503781539,"391":-0.15833758853601895,"392":-0.0343032224819161,"393":-0.06491164397925567,"394":-0.11228926170331897,"395":0.13160901379153664,"396":-0.08255663750042719,"397":-0.11741600512594354,"398":0.07199066333004941,"399":0.16870451818828758,"400":-0.052947761214330265,"401":0.035043330797710055,"402":-0.11183839169130888,"403":-0.16560419155831796,"404":-0.05400130947385002,"405":0.2084095319276837,"406":-0.007018433150684492,"407":-0.1291435606952239,"408":0.18426171404812564,"409":-0.1522101703746374,"410":0.1885362695391185,"411":-0.08372901952179258,"412":-0.14641191073065896,"413":0.03252562112006621,"414":-0.06736614618799201,"415":0.15253165281956288,"416":-0.05530563283874193,"417":-0.023716689022351526,"418":0.14501106564953228,"419":-0.14178734313864028,"420":-0.1788835813155452,"421":-0.08885797343783756}},"8":{"bias":-0.3279616683491336,"weights":{"0":0.07194115616773589,"1":-0.18622185947181558,"2":-0.18573968709764177,"3":-0.2216362010053418,"4":-0.15273465345582837,"5":-0.3309345316960784,"6":-0.018867391878291704,"7":-0.2686582338304259,"8":-0.24379469491747913,"9":-0.18617282096627893,"10":0.11937518870894756,"11":-0.15189473884691937,"12":0.025915026104415085,"13":-0.19339745974692343,"14":-0.19155486468924302,"15":0.08533116272262291,"16":-0.18972847319341896,"17":0.10523381093080679,"18":-0.10628704994641004,"19":-0.06391432864732306,"20":0.017278082885637,"21":0.07716302814696652,"22":0.3853041879745006,"23":-0.09361628753984343,"24":-0.08407336800320286,"25":0.23337776351094888,"26":-0.06011095804731018,"27":0.15082645173996545,"28":0.15056215800027378,"29":0.05750202964249862,"30":0.11152859862563974,"31":-0.14561937660105023,"32":0.01194051091181444,"33":-0.01820329638454645,"34":0.012808135086902504,"35":-0.040185746875749564,"36":0.10806586187964899,"37":-0.024177919702023046,"38":0.1358460512550581,"39":0.15233322481859737,"40":0.0626116031014564,"41":0.25539365727419444,"42":0.13157925051899283,"43":0.18242173403195386,"44":0.037561891529058505,"45":0.004562411458999724,"46":-0.12036528381772693,"47":0.1821004537512732,"48":-0.06243547550606256,"49":0.07480188897007034,"50":0.1055570109477939,"51":-0.031519774913595984,"52":0.07201144984588395,"53":0.07923200772055917,"54":-0.16575374153383296,"55":-0.011057337957203007,"56":0.03798540471224799,"57":-0.13094410120732378,"58":-0.17291336975281382,"59":0.1299086243606331,"60":0.12184798197719092,"61":0.19958810667267105,"62":-0.11081064212850635,"63":-0.018016043709318322,"64":-0.13555222836156636,"65":-0.029276930968060333,"66":-0.005169546199872713,"67":0.005782682453532807,"68":0.1650427076173548,"69":0.06385451615761631,"70":-0.12337061588858804,"71":-0.11103824185994716,"72":0.136470700152907,"73":-0.16683872511752945,"74":0.08623152274605002,"75":0.22741928511371468,"76":0.000820243815993541,"77":0.17081841075275755,"78":0.19522850152154944,"79":-0.10614904291836133,"80":0.09913989209866458,"81":0.013464464699625171,"82":0.159013502730968,"83":0.07965741681893958,"84":0.04340439665304598,"85":-0.02075268064875732,"86":0.04052271000979187,"87":0.21020847137384205,"88":0.20710983690956727,"89":0.16086833319132804,"90":0.004193002629908702,"91":-0.10548152403588616,"92":0.19949972351303935,"93":-0.050253881543903596,"94":-0.023619718047645306,"95":0.07243131436190507,"96":0.12549372818927249,"97":0.22070408895965396,"98":0.08623510398305842,"99":-0.10655080711401542,"100":-0.0881991843515092,"101":0.023558349524681117,"102":0.08667213628836125,"103":0.006189556320415571,"104":-0.05177315026491445,"105":0.16411043496847627,"106":-0.10353404182050657,"107":-0.10607467277402315,"108":0.09213910964651906,"109":-0.02739170428934014,"110":-0.10116578227490856,"111":0.17408987018843566,"112":0.25946411878151887,"113":0.1036275371625049,"114":-0.02167685868203328,"115":-0.12479119477072102,"116":-0.019454044533722466,"117":0.23572768179191053,"118":-0.06418128433101628,"119":-0.09349467199661811,"120":0.009062578175645063,"121":-0.14937997840001765,"122":-0.015570471572452506,"123":-0.10606967400514858,"124":0.00834689967495749,"125":-0.022872734488216837,"126":-0.17189034130233175,"127":-0.02004868701336057,"128":-0.039357181419469166,"129":-0.046720027420425435,"130":0.07824743181745593,"131":-0.11583968743357789,"132":-0.07522424196492615,"133":-0.0553969025255118,"134":-0.3766624967207786,"135":-0.37670897708635986,"136":0.09351733810497576,"137":-0.2938538792972498,"138":-0.06657427406687345,"139":-0.2508795806517417,"140":0.12620071024692245,"141":-0.26674274656903896,"142":0.06123081489813941,"143":-0.14164475785080952,"144":0.18140371083002432,"145":0.2570411862605322,"146":0.3723092277057325,"147":-0.08489752263362471,"148":0.4075312808094649,"149":0.04610974248370198,"150":-0.11431198184184994,"151":0.03513963219018056,"152":0.00986491155039171,"153":0.056921883246507675,"154":0.24018496870107603,"155":0.12879460424767922,"156":0.18772947854005392,"157":-0.032354002734035964,"158":0.16059913720795063,"159":0.09105269082986436,"160":-0.05483526987481798,"161":-0.008764228180258762,"162":-0.120673457609139,"163":-0.14449324657397222,"164":0.26559175676445473,"165":0.12512240936762226,"166":0.0875497362359025,"167":-0.04386274054196343,"168":-0.08259092076954981,"169":-0.00605428564996935,"170":-0.18210446934775854,"171":0.016771603946808347,"172":0.12448824484272197,"173":0.0758045142777075,"174":0.10964921646294236,"175":0.16065632298189567,"176":-0.12610494302389794,"177":-0.10499581391665992,"178":-0.024088400987374442,"179":0.022211282074117204,"180":-0.11728530821439012,"181":0.16502246202664,"182":0.03074096266178488,"183":-0.15311832375619108,"184":-0.0167499090378769,"185":-0.12226548802898916,"186":0.16962010019938925,"187":0.16333646321949805,"188":0.14163779036679144,"189":0.050800038266614264,"190":-0.05567376555761922,"191":0.10272812266650992,"192":-0.14571488859162937,"193":0.08773000430701951,"194":-0.015169788337365415,"195":0.18299546623111757,"196":-0.08161677142354361,"197":-0.1703550699886774,"198":-0.038340836652436754,"199":0.008924281723542798,"200":0.12803177833516605,"201":0.19230368882353854,"202":-0.15297014596179193,"203":0.06044303659644567,"204":-0.04078875588030143,"205":-0.04164093247584941,"206":0.04392415691011836,"207":0.09450905585069,"208":0.1579891288899457,"209":-0.014506963853694349,"210":-0.11850022534895135,"211":0.0028321278277281155,"212":0.14481935530763432,"213":-0.06296555202607783,"214":-0.016653263012674054,"215":0.20241477221860207,"216":-0.18483604782171686,"217":0.012190496784919324,"218":-0.06707504208026163,"219":-0.0907276064118807,"220":-0.13820742679552708,"221":0.1559363485872991,"222":-0.04253001127829131,"223":-0.36017489361401445,"224":0.010960204628474043,"225":-0.42426102431354457,"226":-0.3343238026134568,"227":-0.2333266888428966,"228":-0.22716676218653456,"229":-0.1789513205548394,"230":-0.17660977302328873,"231":0.05470857603949238,"232":-0.030895084805095955,"233":-0.06230624818742524,"234":0.3226333498732809,"235":0.04906298481994166,"236":-0.08229565792781005,"237":0.03465624820133526,"238":-0.15180809755723057,"239":0.1719198810077145,"240":-0.3776431615128151,"241":0.1625330804307762,"242":0.09346423040560749,"243":-0.14602584906287552,"244":0.09429872617378665,"245":0.07764359221840224,"246":-0.07617582638726493,"247":-0.09655556071882322,"248":-0.28608251742321533,"249":-0.21347867529862155,"250":0.004977249419208037,"251":-0.08672828739149556,"252":0.01619755900697792,"253":0.04115958213775739,"254":0.18571134080993584,"255":0.14741927301613858,"256":0.13290409690500304,"257":-0.08775848357269468,"258":0.03563604694472076,"259":0.05754996192602547,"260":-0.20980846501984846,"261":0.004815540954434066,"262":-0.25205820625544173,"263":0.05822222735896667,"264":0.11620085512281882,"265":0.22247296561939542,"266":0.27669812335730465,"267":-0.073238158152376,"268":-0.14719408829074815,"269":-0.12284302580595331,"270":-0.11001328209281795,"271":0.27419870042358746,"272":-0.16972089635610277,"273":-0.08607416958649305,"274":0.27453821671131734,"275":0.1880022810646618,"276":0.11117491057334086,"277":-0.10374221346819974,"278":0.20116375034478812,"279":-0.1684115533911453,"280":0.0915444152149021,"281":-0.048369761512880194,"282":-0.030102113719696507,"283":-0.0599687214908316,"284":-0.07100945806855447,"285":0.009151709242796473,"286":-0.12744008106383242,"287":-0.18336105607309985,"288":-0.14593394712245664,"289":-0.07092867886890843,